199 100
， -0.198160 -0.138490 -0.085557 0.218308 -0.232257 -0.065980 -0.053246 0.068126 -0.292347 -0.240437 0.052229 -0.005139 -0.091504 -0.100111 -0.065537 0.149325 -0.036820 -0.082322 -0.023416 0.054120 0.094104 0.114030 0.079022 0.001373 -0.064091 -0.009471 -0.053025 -0.085451 0.055061 -0.014725 0.215526 0.072689 0.171063 -0.070210 -0.204944 0.015990 -0.338303 -0.138727 0.035442 0.112502 -0.261520 -0.009378 -0.200171 0.065971 -0.017994 -0.075931 -0.011858 0.113894 0.043788 0.099561 -0.028726 0.006221 0.012806 -0.262796 0.048651 -0.118598 0.130523 0.084765 -0.120763 0.024185 0.307659 0.066626 -0.122168 0.162043 -0.245530 0.068659 0.050347 -0.090136 -0.036885 0.025872 0.003696 -0.001396 -0.086622 -0.082926 0.032278 -0.078889 0.080867 -0.039960 0.139731 0.171063 -0.065480 0.062051 -0.029638 0.017381 -0.044478 -0.005085 0.279996 -0.092596 -0.104236 0.151936 -0.291579 0.112294 0.187117 0.105992 -0.146307 -0.020535 0.030300 0.060786 -0.112099 0.065874
的 -0.209806 -0.197780 0.027878 0.216426 -0.056652 0.105306 -0.080225 -0.044086 -0.270848 -0.316132 0.044370 0.060482 -0.147250 -0.104905 -0.236019 0.121212 -0.055877 -0.013048 0.147627 0.096211 0.008898 0.046695 0.139892 -0.138494 -0.050814 0.046498 -0.159970 0.027602 -0.045070 -0.014603 0.138984 0.043995 0.179257 0.012561 -0.111671 0.101783 -0.224425 -0.011265 0.036971 0.025419 -0.223327 0.058319 -0.072354 0.209286 0.033488 -0.039149 -0.024718 0.122235 -0.001065 0.088077 -0.041442 -0.089859 -0.031907 -0.157918 0.072820 -0.014100 0.083757 0.153002 -0.079635 0.090900 0.210531 0.085917 -0.169539 0.043303 -0.331025 -0.105421 0.005693 -0.103731 -0.097638 0.021097 -0.049066 -0.110949 -0.037712 -0.099687 0.098262 0.005243 0.088765 0.012711 0.065432 0.051795 -0.096416 -0.059997 -0.092196 -0.059782 0.158565 0.132100 0.155268 -0.192672 -0.074879 0.091968 -0.222993 0.112958 0.191352 0.087615 -0.079990 -0.049201 0.125367 0.224983 -0.012158 0.043319
。 -0.250954 -0.124233 -0.108261 0.132008 -0.241823 -0.067260 -0.043726 0.107713 -0.325823 -0.235534 0.067286 0.018688 -0.058376 -0.119932 -0.078827 0.176989 -0.007131 0.003300 -0.006452 0.138274 0.028352 0.065542 0.008747 0.003776 -0.063891 0.026036 -0.168383 -0.017203 -0.005308 -0.042186 0.062193 0.103028 0.087349 -0.030449 -0.164676 0.002823 -0.276750 -0.190977 0.074919 0.156064 -0.178688 -0.014927 -0.172057 0.125648 0.021784 -0.102224 0.036050 0.058054 -0.052748 0.076393 0.005901 -0.011602 -0.011910 -0.209313 -0.019692 -0.006603 0.165284 0.027740 -0.134848 0.033858 0.257268 0.126148 -0.170770 0.185965 -0.302046 -0.015637 0.172744 -0.036207 -0.053679 0.038591 0.046215 -0.024645 -0.084847 -0.058935 0.024220 0.003362 0.139251 0.030659 0.103982 0.053320 -0.098096 0.025201 0.016314 0.068481 -0.090003 -0.004594 0.167449 -0.087117 -0.049736 0.138284 -0.220475 0.006070 0.212586 0.078430 -0.176909 -0.152458 0.080650 0.057771 -0.116328 0.073787
、 -0.487063 -0.358442 -0.398848 0.054452 -0.075174 0.139502 0.266003 0.210227 -0.177875 -0.132485 0.390301 0.294732 0.003257 0.130751 0.090372 0.185089 0.107553 -0.287893 0.312635 0.209294 -0.093181 0.300721 -0.292337 0.034909 -0.062095 0.081847 -0.111986 -0.116034 0.081674 -0.048690 0.030725 0.178176 0.369512 -0.123742 -0.056366 -0.129229 -0.291852 -0.163319 -0.082047 0.148529 -0.293076 0.229190 -0.147894 0.063761 0.151735 -0.320120 -0.233646 0.167203 0.168380 0.338873 0.160218 0.231293 0.095855 -0.379914 -0.027258 -0.020938 0.163099 0.159103 0.214356 -0.175064 0.273031 0.294416 -0.293368 0.200663 -0.316726 -0.000412 0.023508 0.311310 0.033104 -0.103550 0.059828 -0.053288 -0.028033 -0.477121 0.076612 -0.108037 0.373261 0.030937 0.002580 -0.264676 -0.375604 -0.270383 0.216405 0.203691 0.024902 0.129945 -0.099621 -0.033407 -0.057529 0.103786 -0.277221 -0.345750 -0.073456 -0.097517 -0.499783 -0.063178 0.096277 0.301611 -0.048874 0.027139
是 -0.123149 -0.195006 -0.029754 0.271731 -0.291071 0.071940 -0.108030 -0.048523 -0.419136 -0.329829 0.068187 0.092495 -0.080470 -0.360123 -0.302892 0.068436 -0.171259 0.015053 0.172876 0.175426 -0.200477 -0.127038 0.323205 0.000340 0.209956 0.006173 -0.199350 0.070155 -0.113010 0.125445 -0.038642 0.013913 0.253022 -0.056190 -0.223688 0.065456 -0.187550 -0.096063 0.017635 0.069090 -0.320749 -0.043679 -0.167929 0.182322 -0.115407 -0.084866 0.036257 0.224418 0.002200 0.172094 -0.062146 -0.134229 -0.142746 -0.039405 0.144385 0.098127 0.173393 0.019187 0.062880 0.108313 0.096442 0.110248 -0.244214 0.050175 -0.292004 -0.119305 0.141332 -0.150626 -0.105241 0.022137 -0.116959 -0.087056 -0.042553 -0.081420 0.018206 0.162605 0.020143 0.067180 0.248867 0.039659 0.009925 -0.065357 0.084732 -0.032100 0.062528 0.198428 -0.005072 -0.265747 0.032170 0.158868 -0.043276 0.069848 0.231102 -0.023247 -0.055545 -0.014279 0.188397 0.155361 -0.008352 0.097718
了 -0.019615 -0.110460 -0.188106 0.282887 -0.219624 -0.061843 -0.290400 -0.145863 -0.097853 -0.514140 0.120046 0.021255 -0.408427 -0.007056 -0.123770 0.185368 0.005072 -0.062085 -0.020487 0.149474 0.243706 0.027061 0.122799 -0.083357 0.080886 -0.153641 -0.011915 0.050412 -0.123235 0.062012 0.386229 0.035513 -0.143938 -0.074720 -0.272965 0.109794 -0.306746 -0.062141 0.101526 0.301862 -0.065294 -0.046653 -0.106976 0.123338 0.000476 0.079794 -0.077630 0.079796 -0.011920 0.073459 -0.053643 -0.090449 -0.076111 -0.078278 -0.025418 0.013003 0.242404 0.012980 -0.335686 0.029358 0.171753 0.104512 -0.132627 0.282321 -0.058483 0.122238 -0.057815 -0.092270 0.111508 0.091386 0.100219 0.005868 -0.137275 -0.258775 0.046962 -0.005649 0.150847 -0.215372 0.147047 0.294838 -0.058639 0.037785 -0.248973 -0.019777 0.037636 -0.022810 0.193149 -0.351534 -0.141284 -0.012149 -0.321597 0.143732 0.308082 0.049765 0.069057 -0.142963 0.131489 0.028932 -0.198247 -0.062520
： -0.129897 0.235374 -0.346646 0.078886 -0.332214 -0.021811 0.090989 0.539471 -0.523171 -0.235009 0.291852 0.417177 -0.065837 -0.029830 -0.083090 0.193977 -0.032644 0.228181 -0.250510 -0.040969 -0.238089 -0.033560 -0.218156 0.107348 -0.065007 0.409571 -0.220493 0.187728 -0.009219 -0.099918 -0.187043 0.407276 0.134951 -0.131906 -0.339525 -0.199524 -0.154227 -0.327458 -0.062263 0.030323 -0.312523 0.238133 -0.277528 0.283066 0.020341 -0.231037 0.020977 0.224162 -0.153487 0.103434 0.498917 0.057685 0.102877 -0.025241 0.009759 0.159804 0.111058 -0.144868 -0.129076 0.029092 0.316896 0.344646 -0.042619 0.282102 -0.326131 0.105566 0.044121 0.017927 -0.076418 -0.079868 -0.149175 -0.129401 -0.113270 -0.178311 0.101402 -0.044133 0.292799 0.057343 0.108944 -0.255518 -0.258895 -0.006788 0.275585 0.156716 -0.169708 -0.073402 0.182286 -0.002862 0.219869 -0.028068 -0.224611 -0.164995 0.175338 0.015987 0.041994 -0.424392 0.118173 0.269097 -0.082509 -0.016055
在 -0.035187 -0.316295 -0.058895 0.274767 -0.169204 0.046635 -0.060488 0.103976 -0.254883 -0.348345 0.025524 0.066727 0.043173 -0.007091 -0.167261 0.291045 0.030046 -0.080081 -0.079650 -0.000685 0.135361 0.027234 0.172299 -0.098740 -0.176407 -0.093933 -0.130511 -0.012771 0.074679 -0.162604 0.054082 0.001349 0.294993 0.144673 -0.326976 0.213182 -0.135392 0.132613 0.001165 0.187264 -0.247701 -0.006064 -0.077786 0.226810 -0.134691 0.004635 0.027958 0.208699 0.126639 0.113015 -0.157621 -0.149318 -0.133326 -0.264329 0.117786 -0.072225 0.055013 0.123611 -0.159262 -0.014940 0.245889 0.087399 -0.038608 -0.153587 -0.275845 0.094839 0.083138 -0.220350 -0.000318 0.155477 -0.042657 0.099380 -0.010877 -0.006933 0.130847 0.005401 0.021915 0.222803 0.207407 -0.043245 0.018565 -0.124181 0.010395 -0.047237 0.133907 0.188525 0.153643 -0.046214 -0.032434 -0.058536 -0.291126 0.066275 0.315752 0.285050 -0.048173 -0.259010 -0.024814 -0.082137 -0.213855 -0.065498
你 0.007853 0.043905 -0.076114 0.294177 0.000247 0.060534 -0.409537 -0.031024 -0.036416 -0.520027 0.200555 0.024447 -0.068151 0.049352 -0.216334 0.339661 0.077269 -0.174282 -0.053536 -0.179553 -0.140409 -0.165754 0.078248 -0.182809 0.228595 0.180611 -0.270132 0.088271 -0.197547 0.246382 0.158078 0.296903 0.030433 -0.258156 -0.202948 0.115538 -0.302510 0.056215 0.165226 0.117732 -0.129301 0.054970 -0.259783 0.214316 0.109765 -0.036670 -0.072016 0.116109 0.270540 0.089751 -0.062975 -0.162417 -0.007073 -0.021060 0.247646 -0.314216 0.187944 0.107982 -0.377145 0.325255 0.155167 -0.094836 -0.318095 0.293974 -0.111807 0.295964 0.047444 -0.334998 -0.092513 -0.453460 -0.149004 -0.133337 0.150454 -0.370615 0.040637 -0.048699 -0.412787 -0.342198 0.299614 0.167463 -0.158387 0.240711 -0.184946 0.072351 -0.013187 0.080051 0.432802 -0.156139 0.238783 0.045792 -0.176564 0.108550 0.183841 -0.014158 0.161750 0.031276 -0.097533 0.499286 0.094190 0.179124
“ -0.153199 0.013691 -0.137106 0.129415 -0.304260 0.058346 -0.211004 0.434676 -0.423607 -0.140555 0.076362 0.188269 -0.209174 -0.042775 -0.129350 -0.103833 -0.155684 0.142737 0.035733 0.157929 0.062896 -0.034514 0.099048 0.504137 0.003788 0.100759 -0.101753 -0.130696 -0.265561 -0.041533 -0.099360 0.119144 0.140180 -0.314776 -0.356065 0.347270 -0.115797 -0.156956 0.065190 0.326052 -0.144334 -0.017438 -0.100965 0.448714 -0.086074 -0.024932 -0.140821 -0.048061 -0.200425 -0.020260 0.388581 0.113806 0.027715 -0.228120 -0.109155 -0.069988 -0.187339 -0.304685 -0.240371 0.131894 0.440155 0.333006 -0.131531 0.179115 -0.067289 0.055966 0.045299 -0.169094 -0.258266 0.071981 0.075890 0.049437 0.124910 -0.382572 -0.254343 0.050350 -0.179610 0.070781 0.294336 -0.006286 0.025397 -0.074888 -0.202693 -0.021748 0.013340 0.018270 0.124261 -0.316271 -0.221978 -0.090168 -0.334070 -0.102933 0.353134 0.018648 0.001980 -0.174504 0.024066 0.211347 -0.394262 0.117148
” -0.146303 -0.018455 -0.173847 0.137429 -0.302264 0.074498 -0.232913 0.357955 -0.419381 -0.106905 0.062766 0.124209 -0.197420 -0.046816 -0.110774 -0.087181 -0.130003 0.151908 0.036834 0.182953 0.056879 -0.049749 0.073996 0.512706 0.034205 0.106049 -0.096275 -0.117939 -0.246411 -0.033170 -0.091851 0.108616 0.104297 -0.333682 -0.305979 0.379681 -0.146782 -0.188326 0.064216 0.326500 -0.162745 -0.046706 -0.079565 0.412884 -0.123333 -0.048952 -0.077500 -0.022367 -0.156078 -0.045344 0.377228 0.137691 0.039337 -0.205987 -0.063343 -0.083832 -0.166425 -0.291597 -0.239932 0.136384 0.430421 0.294845 -0.137947 0.167436 -0.106444 0.048572 0.006400 -0.158352 -0.241105 0.057703 0.109301 0.124330 0.124205 -0.365325 -0.236700 0.049018 -0.131304 0.047291 0.249387 0.005411 -0.000073 -0.096757 -0.227440 -0.069827 0.019437 0.037370 0.116347 -0.292188 -0.199692 -0.088430 -0.335764 -0.108682 0.331402 -0.013835 0.005315 -0.129314 0.024760 0.232606 -0.371253 0.100506
和 -0.324033 -0.315023 -0.017288 0.142492 -0.020739 0.220963 0.102832 -0.083850 -0.216509 -0.275346 0.140993 0.140388 -0.202668 0.052406 -0.059869 0.173726 0.001193 -0.053839 0.238493 0.135459 0.058147 0.082784 0.002252 -0.136030 -0.125855 0.108373 -0.150844 0.040186 0.041254 -0.096552 0.196106 0.142000 0.231943 0.048080 -0.060464 -0.054250 -0.244858 -0.015687 0.041545 0.050458 -0.108330 0.041661 -0.091064 0.077587 -0.007429 -0.272593 -0.135562 0.169390 0.027110 0.286149 -0.018175 -0.002628 0.065149 -0.265844 0.058454 0.048650 0.101612 0.310426 0.175388 -0.121854 0.294652 0.301212 -0.200862 -0.052681 -0.374884 -0.101822 -0.059495 -0.050490 -0.124962 0.054431 0.005323 -0.124890 0.043953 -0.195573 0.128179 -0.109177 0.192522 0.123333 -0.069409 -0.115163 -0.318594 -0.185513 0.159405 -0.053860 0.275498 0.177768 0.222222 -0.141803 -0.104220 0.110065 -0.269277 -0.029680 0.143015 -0.043177 -0.280925 -0.003829 0.004679 0.097633 -0.138786 -0.093243
！ -0.055824 -0.049416 -0.320643 0.519226 -0.197105 -0.072971 -0.276079 0.245820 -0.123963 -0.526869 0.359678 -0.077699 -0.092945 -0.103957 -0.296700 0.245695 -0.213240 0.258374 -0.176624 -0.226626 -0.061303 -0.261672 -0.079524 -0.176034 0.486791 0.036224 -0.210095 0.022062 0.122532 -0.030757 0.163605 0.404187 -0.106894 -0.244835 -0.359352 -0.186131 -0.285213 0.051085 0.149205 0.059607 -0.291130 -0.129577 -0.056021 0.129380 -0.032200 -0.061298 0.058280 0.136359 0.251783 -0.178253 0.174279 0.211220 -0.003147 0.097788 0.121917 0.088761 -0.035124 -0.424284 -0.369593 0.171715 0.417129 0.086801 0.004854 0.382090 -0.256585 -0.015998 -0.189678 -0.165123 -0.032962 -0.231947 0.031806 -0.112830 0.119481 -0.316176 -0.099950 0.068569 0.068383 -0.251313 0.442788 0.203563 -0.107918 0.167990 -0.260777 -0.095410 -0.089815 0.097586 0.110490 -0.190757 0.155777 -0.034573 -0.371802 0.134154 -0.027761 0.029869 0.193038 -0.083471 0.061594 0.252848 0.056726 0.235477
有 -0.048639 -0.177899 -0.098508 0.335911 -0.162333 -0.012715 0.048586 -0.034979 -0.365842 -0.101357 -0.044139 0.113727 -0.077277 -0.146923 -0.216838 0.203261 -0.041181 -0.133175 0.169911 0.241703 -0.110342 0.155053 -0.177523 0.110634 0.070773 0.343657 -0.202709 0.126492 0.045100 -0.074042 0.134051 0.141195 0.276378 0.050668 -0.314998 -0.134741 -0.385476 -0.223344 0.313068 0.237390 -0.227346 -0.177572 -0.017429 0.102181 -0.081118 -0.295449 -0.084014 0.125246 0.007747 0.112244 -0.331041 -0.129099 -0.075075 -0.061333 0.215916 0.080787 0.167917 0.000310 -0.142643 0.095155 0.366653 -0.085385 -0.141251 0.193897 -0.260977 0.102815 0.153146 -0.109838 0.008602 -0.025237 -0.232156 -0.148170 0.026720 -0.090780 0.241148 0.231384 0.095866 -0.167115 0.151355 -0.096874 0.144582 0.052749 -0.038857 0.083712 -0.014943 0.151969 0.227098 0.156109 0.059593 0.217869 -0.057496 0.203377 0.042024 0.125604 0.011889 -0.009962 0.273867 0.248529 0.015023 0.088338
我 0.295365 -0.043391 -0.056744 0.298149 -0.474923 0.127853 -0.384263 -0.187080 -0.245549 -0.596697 0.135210 0.250988 -0.340261 0.032953 -0.048034 0.329887 -0.027829 -0.201637 -0.091346 -0.062262 -0.167577 -0.122633 0.171502 -0.182820 -0.035113 -0.053465 -0.252952 0.209203 -0.141391 0.161067 0.420130 0.064495 -0.014534 -0.298391 -0.246361 -0.127921 -0.150005 -0.048186 0.140880 0.456605 -0.071689 -0.048774 -0.324799 0.433023 -0.075673 -0.097010 -0.175207 0.271665 0.085047 0.019395 -0.028302 -0.004307 -0.133748 0.141112 0.057357 -0.031803 0.112834 0.062698 -0.388811 0.326646 0.137337 0.105293 -0.261092 0.254063 0.010648 0.058545 -0.004667 -0.146357 -0.068151 -0.210635 -0.083073 -0.190335 0.106825 -0.295179 0.111483 -0.065782 -0.375416 -0.129652 0.300755 0.313802 -0.203434 0.231134 -0.206634 -0.033948 0.014731 -0.129945 0.241147 -0.176135 0.288528 0.028637 -0.130777 0.061487 0.292218 0.086535 0.235007 -0.083115 -0.029554 0.170909 -0.279897 0.103071
- 0.044927 -0.132061 -0.199193 0.173128 -0.175107 0.370632 -0.389897 0.295295 -0.542903 -0.186587 0.381158 -0.195014 0.023995 -0.212472 0.247396 0.370667 -0.062731 0.332083 -0.667960 -0.105152 -0.332806 -0.009858 -0.334344 -0.314010 -0.122940 0.416200 -0.262251 0.550648 0.262589 -0.092474 -0.326386 0.526285 -0.053642 -0.119485 -0.375848 0.290647 -0.009049 -0.335611 -0.315919 -0.133841 -0.080588 0.432561 -0.351066 0.120288 -0.451216 -0.579381 -0.030915 0.534938 -0.116849 -0.021764 0.222144 0.482565 0.021044 -0.183912 0.331657 0.349717 0.268185 -0.127199 -0.270412 -0.044715 -0.118913 0.431854 -0.036638 -0.004844 -0.401381 -0.404714 -0.010842 -0.000952 -0.291197 0.196500 -0.043726 -0.012464 -0.084525 -0.355472 0.112369 -0.046565 0.542926 0.188989 0.371764 -0.471897 -0.291874 -0.017191 0.200115 0.026236 -0.233491 -0.097948 0.131130 -0.152567 0.278588 -0.161685 -0.976189 -0.112237 0.182241 0.051677 0.047520 -0.234783 0.304019 0.345750 0.377375 -0.004745
也 -0.217201 -0.174992 -0.018442 0.266620 -0.239760 -0.036454 -0.131429 -0.171385 -0.302640 -0.276330 0.108777 0.048591 -0.112826 -0.071953 -0.087921 0.188706 -0.074476 -0.056071 0.135522 0.200607 0.170759 0.041158 0.220847 -0.042712 0.016187 0.059488 -0.172385 -0.122793 0.012193 0.047738 0.203091 -0.050813 0.124589 -0.113622 -0.264438 0.020574 -0.388681 -0.021493 0.189313 0.156575 -0.165821 -0.107214 -0.194805 0.211446 0.078404 -0.042691 -0.069135 0.106745 -0.042810 0.076820 -0.165033 0.031554 0.017516 -0.182112 0.103672 0.109672 0.121256 0.129260 0.005698 -0.005026 0.189709 -0.161092 -0.288671 0.186159 -0.264169 0.014937 0.185115 -0.114310 -0.107066 -0.065631 -0.038264 -0.040868 -0.091645 -0.008804 -0.099986 0.046478 -0.053629 -0.075199 0.257084 0.304657 0.094564 0.054801 -0.012519 -0.007384 -0.042609 0.025681 0.144966 -0.130545 -0.044094 0.083499 -0.246252 0.142033 0.212470 -0.039351 0.015594 0.087440 0.221952 0.042987 -0.124469 0.045956
就 0.192907 0.048291 -0.177316 0.276392 -0.234147 -0.124520 -0.192249 -0.121536 -0.166214 -0.204121 0.233455 -0.074670 -0.146294 -0.026367 -0.077295 0.308456 0.144661 -0.179008 -0.191920 0.069743 0.063948 0.017466 0.241015 -0.071275 0.027162 -0.016349 -0.167689 0.012919 -0.011403 0.218978 0.290694 0.044352 0.077223 -0.129354 -0.311400 0.255226 -0.465827 -0.029728 0.181535 0.186864 -0.186943 -0.033202 -0.088202 0.015114 -0.008984 0.110151 -0.126148 0.121584 0.033489 -0.068472 0.033651 -0.154210 -0.118612 -0.170059 0.171081 -0.149005 0.123055 -0.016209 -0.338849 0.128915 0.208689 -0.020338 -0.304918 0.284200 -0.070449 0.318945 0.010004 -0.155673 0.018590 -0.031789 -0.022476 0.052717 0.071286 -0.280018 -0.124687 -0.012960 0.083775 -0.270285 0.165324 0.250988 -0.015371 -0.048927 -0.258862 0.048613 0.017009 0.031282 0.302276 -0.180882 -0.008207 0.163809 -0.366736 0.176951 0.327585 -0.014854 0.065550 0.003097 0.244825 0.104977 -0.188166 -0.047865
不 -0.133296 -0.043138 0.045935 0.171191 -0.363520 -0.012903 0.060876 -0.040303 -0.160880 -0.097203 0.186103 0.222451 -0.068704 -0.258933 -0.062934 0.285702 -0.128604 -0.319137 -0.121295 0.152541 -0.353176 0.181243 0.084401 -0.118093 0.030116 -0.127958 -0.154144 -0.041925 0.061770 0.073771 0.217145 0.248415 0.147403 -0.305459 -0.384675 -0.185178 -0.370638 -0.204312 0.144651 -0.010743 -0.187097 -0.278046 -0.105469 0.127052 0.006428 -0.089020 -0.067766 0.021077 0.167993 -0.054114 -0.022862 0.008787 -0.054268 -0.478313 0.212713 -0.184055 0.094208 0.184200 -0.056888 0.249967 0.134686 -0.140200 -0.320533 0.518444 -0.100317 0.130912 0.080655 -0.117152 -0.315764 -0.378165 -0.033644 0.095452 -0.066299 -0.046141 -0.045083 -0.064146 -0.014647 -0.068167 0.291673 0.223329 0.027682 0.312062 -0.000168 0.068348 -0.111095 -0.070311 0.152965 -0.235360 -0.017751 0.048129 -0.104726 0.223948 0.177741 -0.168200 0.131540 -0.058775 -0.028401 0.238146 -0.081794 0.011767
人 -0.177112 -0.213835 -0.098934 0.146592 -0.127646 0.103481 0.009603 0.142166 -0.147997 -0.330122 0.089957 -0.139299 0.172015 -0.276574 -0.396966 0.485961 0.100080 -0.157630 -0.170882 -0.144799 -0.432537 0.139442 0.037346 -0.286526 0.109345 -0.046601 -0.169116 0.130512 -0.247171 0.282125 0.374822 0.201248 -0.012445 -0.505980 -0.207660 0.178085 -0.157981 -0.267768 0.204314 0.215831 -0.216843 0.016027 -0.092039 0.052960 -0.049519 -0.103513 -0.093768 0.103162 0.042469 0.237636 -0.440926 0.031225 -0.107085 -0.227854 0.078993 -0.274155 0.265254 0.068462 -0.182331 0.232157 0.258904 -0.106339 -0.145410 0.244725 -0.349017 0.102709 0.068786 -0.390508 -0.279244 -0.153866 0.031987 -0.240899 -0.261751 -0.075538 0.021820 0.197375 0.018775 -0.162789 0.327564 0.281376 -0.059583 -0.076294 0.013115 0.378906 -0.026928 0.020142 0.133122 0.133824 0.129742 0.132249 0.290206 0.078074 0.137213 0.047680 -0.124541 -0.169075 0.309037 0.204272 -0.105242 -0.009822
都 0.056385 -0.218035 -0.210707 0.300855 -0.045271 0.249670 -0.181366 -0.152564 -0.246749 -0.467270 0.158615 0.255701 -0.145595 -0.092605 -0.079022 0.234358 -0.226670 -0.134499 0.024703 -0.050342 -0.149972 -0.061666 0.194701 -0.210768 0.126001 0.006500 -0.038553 0.000680 -0.046012 0.021334 0.240937 0.093716 0.314871 -0.041553 -0.311195 -0.095303 -0.233945 0.029866 0.076147 0.094677 -0.428924 -0.253466 -0.127020 0.138192 -0.110970 -0.190430 -0.110935 0.274788 0.178646 0.129664 -0.212239 -0.158822 -0.044291 -0.041821 0.151344 0.000153 0.120405 0.205738 -0.039403 0.094401 0.139950 -0.187278 -0.156000 0.199958 -0.221302 0.149177 0.038344 -0.237693 -0.171515 -0.175897 -0.064052 0.002380 -0.143989 -0.081705 0.089033 0.130994 0.089747 -0.304260 0.283077 0.155380 0.207029 -0.095938 -0.084006 0.047904 0.015831 0.118386 0.018895 -0.134675 0.066319 0.068098 -0.056848 0.299010 0.223647 0.093310 -0.122155 0.134824 0.294843 0.050579 -0.194803 -0.169495
） -0.080456 -0.258661 -0.497657 0.017088 -0.397164 0.156887 0.158903 0.430881 -0.107490 -0.037409 0.088638 0.194778 -0.005556 0.058731 -0.054039 0.063698 -0.150918 0.240975 -0.045443 0.076944 0.150377 0.222853 -0.277836 -0.096491 -0.080181 0.285408 -0.245837 0.442778 0.252957 -0.000616 -0.214662 0.369427 0.132072 -0.012874 -0.146633 -0.162413 -0.158819 -0.183987 0.167373 0.041746 -0.525032 0.053439 -0.196654 0.097155 -0.165789 0.057253 0.034912 0.097992 -0.063427 0.153934 0.358390 0.014457 0.144827 -0.290070 0.058507 0.097351 0.208298 -0.048026 -0.087362 -0.230556 0.023091 0.467351 -0.003213 0.148117 -0.404650 -0.030213 -0.011001 0.053309 -0.035418 -0.233613 0.001029 -0.161585 -0.011161 -0.224331 -0.048521 0.101156 0.216675 0.171431 0.095189 -0.218651 -0.500603 -0.191849 0.164499 -0.020650 -0.359130 0.019587 0.313499 -0.183688 0.306292 -0.171241 -0.390012 -0.155055 0.124032 -0.149674 -0.355958 -0.228939 0.045106 0.281041 -0.018575 -0.252519
, -0.192154 0.149362 -0.169590 0.405625 0.162754 -0.175385 -0.140902 0.451643 -0.245165 -0.444682 0.067390 0.030476 -0.255956 -0.227862 0.011578 0.215807 -0.064193 0.204573 -0.163353 -0.095139 -0.168636 -0.053894 -0.089093 0.085522 0.078254 -0.036174 -0.284520 0.022248 -0.011755 -0.177369 -0.125055 0.446752 0.174073 -0.260782 -0.246428 0.117484 -0.101460 0.149780 0.115956 -0.148248 -0.173854 -0.060721 0.136234 0.152587 -0.474570 -0.165541 0.065999 0.357349 0.082832 0.079375 0.023408 -0.058193 -0.004635 0.152797 0.266598 -0.149214 0.273518 -0.042903 -0.426102 -0.250242 0.197657 0.057600 -0.165793 0.367251 -0.393555 -0.149529 -0.198371 0.019015 0.019768 -0.168506 0.174712 -0.097618 0.119946 -0.390706 0.366988 0.156716 0.246363 -0.012808 0.106390 0.096759 -0.095234 -0.040090 -0.114798 -0.063880 -0.122845 0.247031 0.132328 -0.314500 0.142746 -0.235082 -0.394887 -0.031306 0.021696 0.119655 -0.083839 -0.171780 0.012633 0.119553 0.242396 0.056460
（ -0.036715 -0.287225 -0.493308 0.042637 -0.421228 0.159353 0.191788 0.446853 -0.063848 -0.012964 0.124232 0.242512 -0.030938 0.082668 -0.101239 0.110192 -0.163735 0.245148 -0.032523 0.056308 0.181698 0.244491 -0.279892 -0.086979 -0.041254 0.315090 -0.265654 0.489813 0.260877 0.037787 -0.225557 0.346357 0.170850 -0.034410 -0.100729 -0.174944 -0.158595 -0.232670 0.170736 0.029274 -0.534415 0.079371 -0.219316 0.097576 -0.164883 0.069324 0.040586 0.106728 -0.085942 0.135990 0.393558 -0.030269 0.131186 -0.321296 0.028316 0.099992 0.172792 -0.068358 -0.092659 -0.240236 -0.018945 0.508334 0.079320 0.135385 -0.422925 -0.059121 -0.055680 0.104761 -0.041066 -0.262898 -0.051872 -0.155731 0.018483 -0.240851 -0.050599 0.156624 0.230120 0.182617 0.080959 -0.213960 -0.514153 -0.185583 0.160651 -0.014590 -0.330633 0.003928 0.336539 -0.195977 0.301784 -0.161471 -0.425104 -0.166345 0.109339 -0.190041 -0.352531 -0.227289 0.081336 0.322338 0.019582 -0.273042
. 0.019474 0.091712 -0.319398 -0.041828 0.065842 0.029472 0.129198 0.605348 -0.388264 -0.360982 0.173578 0.115658 0.110121 -0.177871 0.235247 0.338236 0.267858 0.136628 -0.380870 0.031568 -0.208183 0.008305 -0.512616 0.322154 -0.203371 0.181666 -0.293845 0.184713 -0.018785 0.000309 -0.193334 0.207946 -0.286727 -0.174021 -0.265937 -0.086012 -0.408568 -0.100846 -0.069003 -0.079348 -0.154994 0.142846 0.104113 0.117788 -0.181427 -0.346888 -0.054203 0.299809 0.047643 0.075256 0.154456 0.222940 0.097967 -0.046374 -0.108742 0.096611 0.412536 0.191533 -0.208369 -0.035814 0.233917 0.097180 -0.673961 0.400986 -0.559946 -0.053897 -0.172430 0.125414 -0.154925 -0.552380 0.184370 -0.036201 0.184630 -0.167328 0.065875 0.137607 0.090355 0.243664 0.376420 -0.263174 -0.272334 -0.199138 0.041925 0.342342 -0.055632 -0.006067 0.245430 -0.002862 0.343903 -0.039816 -0.484790 -0.041951 0.152599 0.241034 -0.466126 -0.213733 -0.102109 0.258674 0.037573 -0.223905
会 -0.107721 -0.089452 0.056521 0.203462 0.159589 -0.050656 -0.130340 0.060324 -0.208261 -0.277560 0.374209 -0.157172 -0.045096 0.057760 -0.066374 0.332379 0.021907 0.012222 -0.108673 0.239248 -0.001519 0.020636 0.263394 -0.289048 -0.014403 0.136082 -0.172830 -0.120982 -0.071150 0.298613 0.010890 0.096989 0.163887 -0.153952 -0.314711 0.260487 -0.520941 -0.014624 0.162503 0.052787 0.030657 -0.059661 -0.096877 0.165186 0.185491 0.003013 -0.348296 0.069216 0.106888 0.008567 -0.142532 -0.145262 0.100298 -0.408864 0.218703 -0.091832 0.200789 0.211608 0.002305 0.158774 0.254662 -0.197774 -0.341939 -0.113998 0.014258 0.080705 0.028073 -0.137682 0.038277 -0.126214 0.160960 -0.033682 -0.112682 -0.178273 -0.014321 0.079713 0.167799 -0.374612 0.112578 0.113999 0.076853 0.199261 -0.071828 0.026575 0.011381 0.111052 0.496185 -0.010153 0.286222 0.046723 -0.211111 0.285909 0.238723 0.195631 -0.002787 -0.121872 0.407524 0.143990 -0.170028 -0.022571
？ -0.050337 -0.124308 -0.060764 0.411030 -0.220966 -0.067877 -0.199791 0.270279 -0.148993 -0.644759 0.534605 0.456869 -0.202611 -0.110220 -0.453189 0.279633 0.095169 0.118868 -0.132964 0.121207 -0.250134 -0.134071 0.295610 0.204879 0.275207 0.039890 -0.166749 -0.011017 -0.255070 -0.075192 -0.156509 0.054958 0.051238 -0.180632 -0.618645 0.209996 -0.300041 0.004430 0.042635 0.230999 0.105225 -0.277700 -0.079604 0.064737 -0.035707 -0.164881 0.025603 0.059142 0.036893 0.220337 0.169350 -0.070462 -0.101884 0.252235 0.245276 -0.134774 0.075794 0.005729 -0.278546 0.198127 -0.063814 -0.035930 -0.291645 0.449824 0.016887 0.071062 0.091946 -0.403296 0.099361 -0.059892 -0.109560 0.168492 0.147802 -0.464939 0.209628 0.235282 0.036098 0.028015 0.052699 -0.107212 -0.071822 0.073550 -0.132174 0.091535 -0.033418 0.161684 0.084558 -0.154964 0.268076 0.064582 -0.187463 0.052830 0.141733 -0.294656 0.412782 -0.141856 -0.054460 0.245447 -0.048817 0.244115
一个 0.048319 -0.204577 -0.191799 -0.000487 -0.152023 0.072955 -0.137625 -0.086543 -0.351200 -0.401399 -0.096826 0.157139 -0.089475 -0.153836 -0.312120 -0.030970 -0.125334 -0.133760 0.032276 0.067217 0.015169 -0.199393 0.005690 -0.075343 0.063089 0.055148 -0.242641 0.167302 -0.174551 0.219772 0.000988 0.006971 0.021641 -0.200747 -0.155699 0.262512 0.002497 -0.084822 0.179159 0.066190 -0.146890 0.233893 -0.087654 0.235374 -0.078245 0.000196 -0.015515 0.057060 0.009135 0.159152 -0.305634 -0.444359 -0.146113 -0.064893 0.305027 0.193424 0.152151 -0.090898 -0.073178 0.382790 0.284710 0.017886 -0.272713 0.014360 -0.270155 0.071058 0.133209 -0.131302 -0.000303 -0.112717 -0.284689 -0.223229 0.122891 -0.050711 0.124053 -0.007043 0.197655 -0.248211 0.279704 0.112590 0.004956 -0.319823 -0.093808 -0.098313 -0.007643 -0.052463 0.274133 -0.262140 -0.109819 -0.020305 -0.070661 0.268885 0.504201 0.016221 0.013220 0.052438 0.016864 0.486104 -0.123053 -0.074166
我们 -0.104245 0.015940 0.061994 0.261109 0.001188 0.172574 -0.197856 -0.169626 -0.100472 -0.414917 0.006862 0.143730 -0.109189 0.047048 -0.198303 0.153732 -0.115639 0.131916 -0.201134 -0.254678 -0.165677 -0.227221 0.021955 -0.199671 -0.075528 0.028837 -0.206934 0.136247 -0.082294 -0.107278 0.229644 0.207459 0.148281 -0.085600 -0.086891 0.015590 -0.178892 -0.009570 0.028389 0.286238 0.062357 0.019638 -0.341099 0.052126 0.128877 -0.185042 -0.109413 0.097962 0.163948 -0.120648 0.076039 -0.129607 -0.069279 -0.038226 0.408945 0.012565 -0.127088 -0.086618 -0.260734 0.230145 0.343511 0.162274 -0.177607 0.125109 -0.214256 -0.109508 0.006949 -0.479158 -0.126186 -0.053851 0.070952 0.020774 0.090048 -0.017672 0.074816 0.004794 -0.099375 -0.267147 0.134848 0.050171 -0.082226 0.072552 -0.089662 -0.047954 0.173228 0.263920 0.263142 -0.029501 0.277070 0.066982 -0.261236 0.332914 0.282807 0.204802 0.059578 0.011631 0.317885 0.081438 -0.204331 0.173094
； -0.404811 -0.216916 -0.320308 0.110300 -0.143550 -0.043749 0.093127 0.241359 0.024262 0.064861 -0.044213 -0.176197 0.083617 0.028681 0.255665 0.140069 0.099940 -0.226793 0.038287 0.208222 -0.243308 0.198979 -0.079725 0.099886 -0.090297 0.013790 -0.125587 0.032894 0.033167 -0.028818 -0.007493 0.335077 0.187988 -0.223907 -0.172516 -0.122109 -0.381692 -0.397702 0.082756 0.049160 -0.140602 0.250487 -0.270437 0.041923 0.101722 -0.255225 -0.181587 0.112497 0.034869 0.347643 -0.055867 0.144073 -0.047298 -0.577085 0.120836 -0.063275 0.353747 0.186215 -0.142782 0.051999 0.400024 0.071910 -0.172884 0.301961 -0.324787 0.088234 0.116279 -0.081010 -0.160951 -0.279872 0.119095 -0.170610 -0.103288 -0.080912 0.018388 -0.169177 0.050552 0.071194 0.034037 -0.028847 -0.163786 -0.087573 0.047675 0.228114 -0.110209 -0.258438 0.216437 -0.053034 0.038385 0.047004 -0.383795 -0.022058 0.092287 -0.012657 -0.430074 0.032989 -0.172600 0.271490 0.124325 0.010459
他 0.092611 -0.243218 -0.003321 0.140900 -0.379699 0.176535 -0.224142 -0.305548 -0.121413 -0.534386 0.113758 0.069023 -0.098725 0.029276 0.066584 0.429169 0.091975 -0.123177 -0.092863 0.003276 -0.058746 -0.025570 0.148921 -0.211944 -0.047758 0.083539 -0.054200 0.221256 -0.203784 0.303314 0.443721 0.094446 -0.142490 -0.167711 -0.185194 0.103444 -0.185194 0.009842 0.210139 0.523553 -0.176585 -0.040211 -0.280984 0.424521 -0.017386 -0.051406 -0.195701 0.120245 -0.181087 0.252563 -0.189492 -0.222132 -0.183789 -0.023475 0.097232 -0.328313 0.217683 0.244737 -0.097334 0.315779 0.100741 0.051556 -0.229168 0.158252 -0.045595 0.201822 0.151828 -0.022155 0.086757 -0.014729 -0.131276 0.045078 0.042243 -0.065195 0.132860 -0.055538 -0.377634 -0.025190 0.221763 0.368858 -0.333879 0.162384 -0.114638 0.150323 0.051028 0.058822 0.298666 -0.234873 -0.118703 0.009290 -0.172074 -0.093502 0.495007 0.060808 0.123749 -0.068423 0.050344 0.193878 -0.311851 0.069698
要 -0.303021 -0.043571 -0.082585 -0.029940 -0.137617 -0.025809 0.095262 0.238327 0.016148 -0.296048 0.169857 0.084686 -0.055104 0.047024 -0.160569 0.106038 0.070985 -0.027076 0.107321 0.175567 0.065635 -0.168667 0.182808 -0.141880 0.185623 -0.155460 -0.062013 -0.062983 -0.188485 0.060004 0.105301 0.252754 0.187476 -0.258410 -0.200759 -0.424937 -0.237092 0.217371 -0.138143 0.175910 -0.171100 0.002473 -0.103136 0.069183 -0.066193 -0.347035 -0.118117 0.149655 0.266285 -0.006568 -0.127659 -0.214515 -0.345483 -0.158023 0.132364 -0.196904 -0.060262 0.060523 -0.174568 -0.009083 0.149949 -0.049099 -0.475067 0.245448 -0.241548 0.209352 0.043579 -0.158553 -0.025147 0.084947 -0.241481 -0.144673 0.049554 -0.086595 -0.143079 -0.142255 0.037187 -0.005251 0.332549 -0.124450 -0.208468 0.268451 -0.106689 0.194189 -0.209910 -0.063704 0.373379 -0.332773 -0.161995 0.168438 -0.358775 0.487581 0.165873 0.022140 -0.054660 0.060775 0.043747 -0.025128 -0.382776 0.238189
对 -0.392420 0.030120 0.366827 0.247828 -0.178752 0.186018 -0.074961 -0.198062 -0.225729 -0.305526 0.134520 0.088310 -0.216085 0.015182 -0.072839 0.144709 -0.141135 0.237395 0.130930 0.387556 -0.073860 0.104091 0.001268 -0.022465 0.049141 0.116707 -0.083752 0.122715 0.124251 -0.135372 0.031410 0.176155 0.172630 -0.211271 -0.187961 -0.122366 -0.116215 -0.108399 0.316114 0.097394 0.080449 -0.260091 0.046714 0.285825 0.091150 0.035292 -0.012504 0.161073 -0.000651 0.100762 -0.132383 0.081044 -0.041840 -0.128743 -0.231325 -0.060087 -0.063167 0.455775 0.171320 -0.117952 0.224337 0.137874 -0.148636 0.095439 -0.163530 -0.062255 0.056051 -0.094088 -0.237761 -0.095072 -0.125951 -0.223944 -0.012828 0.051242 0.196805 0.027720 0.180634 -0.178680 0.011744 -0.015871 -0.175604 -0.006081 0.140084 0.117260 0.031099 0.255445 0.242811 -0.169328 0.202833 0.055854 -0.370247 -0.050258 0.559669 0.184741 -0.105697 -0.106246 0.053987 0.004599 -0.231626 0.111589
为 -0.406693 -0.026428 -0.090809 0.135630 -0.294515 0.481854 0.050774 0.397359 -0.153959 -0.257896 -0.147946 -0.007228 0.007977 -0.344970 -0.129546 -0.116719 -0.357374 0.007180 0.290722 -0.004337 0.180233 0.112145 -0.116620 0.335550 0.122452 -0.088662 0.065118 0.257681 0.098033 0.070559 0.056600 0.375564 0.345516 -0.206420 -0.089454 0.231829 -0.205267 -0.200258 -0.295121 -0.291770 0.029160 -0.007398 -0.394341 0.245466 0.145739 -0.159311 -0.023332 0.210792 -0.069382 0.255258 -0.032324 0.149529 0.102473 -0.292960 0.205706 -0.268532 -0.009085 0.162846 0.035943 -0.062574 0.163185 0.355269 0.009371 0.111495 -0.533324 -0.222198 0.143971 -0.064162 0.158536 0.034340 0.044841 0.062823 -0.055031 -0.059225 0.017335 -0.157558 -0.059482 0.090464 -0.247710 0.064802 -0.142715 -0.084894 0.126671 -0.022993 0.098587 0.111878 0.280404 -0.401902 0.000551 -0.068182 -0.244511 0.165722 0.220184 0.252978 -0.021790 0.065896 -0.070657 0.191312 -0.022486 0.251349
自己 0.005776 0.125490 0.086678 0.059103 -0.165589 0.169505 -0.113419 -0.081419 0.172468 -0.413535 0.206514 0.013631 -0.195665 -0.093304 -0.321170 0.393948 0.213635 -0.153442 0.100075 -0.076553 0.113245 -0.022724 0.012061 -0.323627 0.009768 0.129174 -0.267118 0.113273 -0.270320 0.070512 0.394129 0.086786 -0.069349 -0.234450 0.126508 -0.096077 -0.217327 0.306486 -0.114287 0.067247 -0.058454 -0.009415 -0.316857 0.299867 0.207367 -0.170581 0.098270 0.198720 0.139291 0.195782 -0.160506 0.046299 -0.041884 -0.008449 0.196734 -0.163472 0.072152 0.224225 -0.382038 0.446864 0.146873 -0.078463 -0.240088 0.174397 -0.327195 0.121337 0.219690 -0.282420 -0.062350 -0.308041 0.088977 0.026109 -0.103590 -0.133513 -0.000936 0.077266 -0.272622 -0.334607 0.266245 0.134784 -0.386040 0.128436 -0.178466 0.361822 0.137630 -0.011006 0.417374 -0.254603 -0.202155 0.061482 0.001196 0.233860 0.486453 0.146736 0.163414 0.142111 -0.048492 0.312675 -0.142031 0.043166
中 -0.410266 -0.169296 -0.059082 0.217780 0.112637 0.263672 -0.118439 0.175986 0.000547 -0.534800 -0.039980 0.246644 0.208079 0.004677 -0.143455 0.058151 -0.100586 0.100387 -0.206125 0.303541 -0.029850 0.142077 0.004514 -0.183632 -0.256014 0.073290 -0.159719 -0.112748 -0.068610 -0.046916 0.004757 -0.189907 0.302299 0.155574 -0.088310 0.345891 -0.301679 0.024911 0.125354 0.213296 -0.301301 -0.049056 -0.081584 0.219974 -0.161766 -0.002617 -0.044860 0.208199 0.027186 0.099540 0.189566 -0.220963 -0.062486 -0.287482 -0.012377 0.197301 0.071955 0.106776 -0.057260 -0.184565 0.355170 0.173170 -0.037180 -0.305653 -0.381954 -0.015328 0.089579 -0.063799 -0.287923 0.023326 0.198063 -0.005381 -0.045592 -0.081735 0.006262 0.082743 0.143216 0.232738 0.038604 -0.007385 -0.233076 -0.315399 -0.043231 -0.195003 0.224317 0.207413 0.277023 0.287854 -0.155981 -0.170620 -0.023358 0.057484 0.315289 0.164700 -0.415090 -0.168300 0.109531 0.009739 0.090407 0.025455
可以 -0.048425 0.009586 0.003952 0.186443 -0.158950 0.215933 -0.286583 0.021470 -0.263988 -0.418647 0.122317 -0.033588 0.010182 -0.055453 -0.232036 0.233868 -0.045463 -0.253805 0.053876 -0.036822 0.045579 0.030165 -0.123607 0.027870 -0.270620 0.341686 -0.181119 0.022665 0.004745 -0.112109 0.204067 0.026954 0.277843 0.196467 -0.059892 0.237441 -0.591624 0.277536 0.001345 0.210382 -0.156630 0.053976 -0.047906 -0.200367 -0.000228 0.026760 0.101484 -0.011040 0.232421 0.221429 0.155217 0.097851 0.180836 -0.084154 0.127610 -0.076832 -0.044240 -0.002072 -0.137182 0.075062 -0.011623 -0.156884 -0.371488 0.095068 -0.146489 0.209044 0.019001 -0.328330 -0.165058 0.014995 -0.123142 -0.172891 0.292073 -0.286172 -0.245810 -0.008541 0.173094 0.027401 0.019947 0.287078 0.005545 0.113048 -0.084621 0.138945 0.024127 -0.078365 0.319700 0.020541 -0.023548 0.157890 -0.430029 0.103548 0.266030 0.045692 0.011545 0.177627 0.196063 0.193656 0.001436 0.032518
等 -0.543642 -0.352379 -0.317148 0.360693 0.038463 0.257387 0.174422 0.000019 -0.055431 -0.114086 0.327408 0.295056 -0.187758 0.184932 0.204068 0.162672 -0.028126 -0.270939 0.486050 0.261309 -0.021072 0.323464 -0.191436 0.143131 -0.219303 0.192483 -0.079941 -0.199673 0.124723 -0.042823 0.216572 0.255509 0.409274 0.000860 -0.046786 0.004619 -0.396745 -0.069027 0.024712 0.227140 -0.201154 -0.028173 -0.028856 0.025010 0.138145 -0.297139 -0.137294 0.113133 0.254984 0.175064 0.247373 0.007633 0.294740 -0.480522 -0.128307 0.068789 0.093742 0.184937 0.278142 -0.309002 0.294053 0.031135 -0.097560 0.191587 0.041653 0.024068 0.055200 0.215873 0.156138 -0.019289 0.006353 0.034958 0.062673 -0.309212 0.071620 0.015707 0.309153 0.066000 0.042628 -0.308414 -0.309357 -0.187677 -0.025103 0.083846 0.055250 0.323784 -0.018575 -0.078201 0.007855 -0.018822 -0.457754 -0.340146 -0.103753 -0.074383 -0.292815 -0.053820 0.271999 0.224781 -0.242842 -0.052804
与 -0.543087 -0.332184 -0.141765 0.194529 0.094284 0.104062 0.133345 0.030822 -0.197796 -0.164822 0.231917 -0.074639 -0.113844 0.114856 -0.100599 0.039897 0.033173 0.043199 -0.071558 0.115873 0.124181 0.057869 0.010811 -0.250220 -0.152241 0.079335 -0.192374 0.297329 0.260727 -0.106239 0.169487 0.056327 0.345985 -0.066936 -0.217246 0.035613 -0.173840 -0.034742 0.000073 0.196632 0.067361 0.049762 -0.106325 -0.025135 0.015674 -0.301001 -0.062277 0.218476 -0.287535 0.222498 -0.093153 0.028816 0.207252 -0.379350 0.302247 0.010735 0.066922 0.044513 0.188724 -0.150085 0.393134 0.331684 0.031608 0.084893 -0.607476 -0.126211 -0.025985 -0.269070 -0.287351 -0.079268 0.047042 -0.019855 -0.021567 -0.133012 0.068915 -0.000918 0.067861 0.376188 -0.186983 -0.239885 -0.246564 -0.102722 0.386130 -0.299197 0.332093 0.173279 0.249397 0.093096 -0.097952 0.019489 -0.170145 -0.208264 0.268551 -0.045754 -0.159351 0.075890 0.057464 0.059033 -0.280563 0.006681
上 0.096869 -0.326449 0.023052 0.128232 -0.273070 0.063913 0.098603 0.034820 -0.274733 -0.347000 -0.026632 0.052710 -0.119772 0.022802 -0.271110 0.122202 0.006347 -0.242660 -0.027678 0.025903 0.289191 0.151946 0.092900 0.084391 -0.053160 0.050433 -0.195480 0.031654 0.108751 -0.222584 0.143315 -0.029106 0.166165 0.451655 -0.290729 0.167736 -0.082832 0.177117 -0.011463 0.186408 -0.298195 0.036518 -0.119858 0.243614 0.035607 -0.195626 -0.124454 0.244282 0.064321 0.162879 0.138919 -0.218818 0.053672 -0.227258 0.088624 -0.073460 0.123716 0.001762 -0.178150 0.021189 0.055858 0.042823 -0.180444 0.027171 -0.348484 0.290093 0.181727 -0.092249 0.132103 -0.091290 -0.063435 0.095686 -0.052169 -0.258096 0.032135 -0.067490 -0.032356 0.156019 0.232357 -0.060032 0.295859 -0.232616 0.120614 -0.285311 0.477455 -0.069708 0.159760 -0.475130 -0.224527 0.038932 -0.369379 -0.020123 0.351330 0.222802 -0.158932 -0.194646 -0.039131 -0.054589 -0.104766 -0.092765
年 -0.521127 -0.515655 -0.263822 0.042193 -0.371428 0.169738 -0.315452 0.444628 0.385494 -0.342854 -0.024958 -0.321722 -0.231345 -0.011464 -0.112482 0.191999 0.099106 0.280686 -0.134830 0.206117 0.181396 0.164770 -0.086698 -0.250103 -0.069882 -0.581344 -0.018168 0.604579 0.039348 0.063186 -0.164667 0.120850 -0.157096 0.177818 -0.127181 0.129703 -0.088120 -0.237531 -0.198833 -0.097376 0.106827 -0.067527 -0.224582 0.573947 -0.266009 0.249867 0.256265 0.139729 0.201366 0.066855 -0.428336 0.228050 0.240641 -0.115068 0.050968 -0.052626 0.098811 0.065391 -0.527924 0.064860 0.337296 0.338280 0.029735 0.266411 -0.292675 0.162706 0.163902 -0.102133 0.436121 0.304244 0.388979 0.279876 -0.059452 0.118000 -0.203397 -0.003093 0.310993 0.471874 0.216634 -0.100214 -0.091087 -0.306960 0.218056 0.077515 -0.276151 0.172945 -0.239377 -0.273969 0.120507 0.042873 -0.754263 -0.010823 0.357393 0.075660 0.158269 -0.287936 0.388593 0.117921 0.282979 0.065844
— -0.287728 -0.020744 -0.125074 0.246116 -0.265763 0.181616 -0.242163 0.107388 -0.246899 -0.073764 0.379940 0.020974 0.093606 -0.037314 -0.315679 0.112222 0.119933 0.018885 -0.232507 -0.067411 -0.297386 0.132994 -0.233788 0.051643 0.437947 0.135640 -0.491641 0.183088 -0.313610 0.108742 -0.298384 0.268835 0.193365 0.272342 -0.311157 0.126545 -0.086977 -0.355941 -0.237733 0.255261 0.006082 0.423641 -0.345147 0.402027 0.031218 -0.183558 0.077616 0.247605 -0.014514 0.003379 0.327254 0.188206 0.035975 -0.129104 0.097787 0.073842 0.397374 -0.392874 -0.249138 0.151830 -0.016084 0.566412 -0.102473 -0.171021 -0.471460 -0.485877 0.135058 0.101538 -0.018075 0.219974 0.180521 -0.159538 0.002225 -0.258885 -0.130461 -0.100865 0.190238 0.182727 0.281483 -0.160950 -0.347688 -0.130488 -0.087258 0.255324 0.058102 -0.030680 -0.170764 -0.179163 0.039657 0.001379 -0.308762 -0.163786 -0.015350 -0.014882 0.063043 0.032050 0.054205 0.417939 -0.169845 0.240791
到 0.247996 -0.176663 -0.329769 0.279579 -0.116194 0.192742 -0.068944 -0.022426 -0.090800 -0.256278 -0.106530 -0.131561 0.030772 0.122932 -0.084947 0.287117 0.204266 0.081465 -0.130102 0.099907 0.214503 0.151501 0.113758 -0.144078 0.057250 -0.036704 -0.075927 0.166045 0.109079 0.160900 0.111552 0.136016 0.053301 -0.170141 -0.203256 0.362105 -0.440566 -0.049256 -0.152589 0.362667 -0.359340 0.041904 -0.095294 -0.072811 -0.119999 -0.076306 0.076793 0.370742 0.216599 0.145324 -0.108730 -0.095301 -0.164312 -0.235732 0.023503 -0.187440 0.204365 0.085260 -0.282285 0.080987 0.247621 0.094458 -0.067574 -0.087846 0.036489 0.071205 -0.175090 -0.367400 0.007696 0.229955 0.059259 0.190791 -0.207526 0.022627 -0.049432 -0.052912 0.113268 0.106699 0.160726 -0.034643 -0.198826 -0.062361 -0.081731 -0.212620 0.160260 -0.248108 0.097221 -0.204729 0.262589 0.304374 -0.570724 0.139492 0.113806 0.328284 0.100920 -0.160584 0.172163 -0.011378 -0.251491 -0.058045
1 -0.158910 -0.044763 -0.210205 -0.021165 -0.191153 0.087398 -0.025150 0.595315 0.054800 -0.464136 0.481543 0.157645 0.034049 -0.195386 -0.034699 0.182684 0.025929 0.079147 -0.064168 0.158141 -0.366912 0.052365 -0.464862 0.058928 -0.042332 0.105563 -0.193015 -0.004878 0.061937 -0.095426 -0.190747 0.498607 -0.063574 0.037776 -0.141444 -0.047726 -0.083960 -0.260716 0.055894 -0.253820 -0.165089 0.215828 -0.249102 0.111719 -0.276769 -0.188778 0.269765 0.058028 0.194034 0.085019 0.094220 -0.140882 0.297234 -0.050981 0.019876 -0.102893 0.183716 -0.202367 -0.284235 0.048885 0.099602 0.280271 -0.308765 0.317792 -0.479690 0.286511 0.071255 0.119641 0.212365 -0.212716 -0.009841 -0.092428 -0.023918 -0.114910 0.012834 -0.188124 0.812654 0.238548 -0.004312 -0.401605 -0.397966 -0.483687 0.106217 0.049134 -0.130530 -0.099539 0.283384 0.149390 0.320040 -0.063352 -0.399938 -0.118828 0.081685 0.019543 0.117429 0.010578 -0.087680 -0.045249 0.281391 -0.105458
月 -0.331764 -0.595250 0.021521 -0.094443 -0.634856 0.205964 -0.400366 0.778729 0.107433 -0.333449 0.125713 -0.007231 -0.057512 -0.059106 -0.037365 0.127853 0.095093 -0.067822 -0.347985 0.398264 0.555547 0.177581 -0.239972 -0.358675 0.054698 -0.217497 -0.173958 0.307672 0.112258 0.181315 -0.221339 0.361697 -0.014362 0.085151 -0.244313 0.067463 -0.050325 -0.305048 -0.037602 -0.122054 0.099760 0.052823 0.010714 0.366063 -0.405873 0.200348 0.505806 0.297764 0.030014 0.201543 -0.447034 0.364206 0.143649 -0.152565 0.285122 0.094210 0.108836 -0.254594 -0.510031 0.155334 0.390724 0.356008 0.074010 0.383352 -0.215958 0.262482 0.169082 -0.067767 0.462967 0.161044 0.564915 -0.002442 0.019407 0.133946 0.043812 -0.276755 0.669026 0.293501 0.208911 -0.142864 -0.178742 -0.185357 0.141622 0.071748 -0.358629 0.059795 -0.272247 -0.050237 0.394008 -0.107790 -0.665789 -0.164242 0.383289 -0.050249 0.286047 -0.256499 0.010707 -0.032229 0.091986 -0.104341
让 -0.115136 0.066316 -0.083369 0.161449 -0.007401 0.061555 -0.220064 -0.093420 -0.121103 -0.528959 0.350244 -0.044416 -0.012473 -0.087479 -0.160854 0.192414 0.025714 -0.051996 0.058919 -0.216251 0.240451 -0.262655 -0.019538 -0.164000 0.032804 0.114439 -0.100663 -0.022332 -0.180450 0.082958 0.145818 0.105827 0.043002 -0.194997 -0.362189 0.078772 -0.241128 0.099846 -0.037881 0.166847 -0.039717 -0.114281 0.102900 0.231470 0.357928 0.011494 -0.126528 0.185296 0.134357 -0.008685 -0.261680 0.112977 -0.044803 -0.142175 0.161034 -0.219624 0.015365 0.267700 -0.212921 0.117778 0.165136 -0.183003 -0.210866 -0.055130 -0.499321 -0.105579 -0.040539 -0.062062 -0.258272 -0.237397 0.085817 -0.019114 -0.012554 -0.235837 -0.081181 -0.045078 0.133724 -0.550427 -0.037296 0.362220 -0.180244 0.132024 -0.323170 -0.080714 0.277825 -0.011128 0.317299 -0.084230 -0.114103 0.074804 -0.410363 -0.014940 0.224253 0.049572 0.024954 -0.106219 0.013245 0.378541 -0.044496 0.186731
说 0.080794 0.075602 -0.076065 0.431923 -0.472288 -0.046353 -0.310837 -0.110993 -0.522669 -0.506705 0.062176 0.326670 -0.150380 -0.065347 -0.029815 0.152044 0.104300 -0.056529 -0.037222 0.136841 -0.087295 -0.160517 0.279906 0.114382 0.218095 0.070127 -0.194480 0.178222 -0.159086 0.099470 -0.043450 0.194046 -0.003100 -0.343742 -0.381304 -0.173352 0.072246 -0.118960 0.350016 0.351196 -0.055896 -0.179164 -0.168916 0.402554 0.005570 0.010909 -0.211650 0.261881 -0.157104 0.075684 -0.097522 -0.162908 -0.144367 -0.163728 0.008109 -0.003963 -0.142950 0.094599 -0.141650 0.000567 0.030452 0.194884 -0.213248 0.326692 -0.005898 0.171238 0.153693 -0.159876 -0.030578 -0.000668 -0.315741 0.007384 -0.064509 -0.365690 -0.007027 0.038087 -0.265914 0.010956 0.462227 0.172340 -0.109594 0.082536 0.035487 0.249202 -0.055029 -0.032729 0.001058 -0.045575 -0.026578 0.137191 -0.296453 -0.079092 0.425811 -0.150437 0.340731 -0.174112 0.269365 0.103916 -0.447802 0.140776
这 -0.133851 -0.089504 -0.083219 0.291906 -0.326334 0.026827 -0.228472 -0.224398 -0.201880 -0.492505 0.058129 0.273910 -0.341120 -0.216835 -0.376179 0.068915 -0.186853 0.019682 0.133611 0.236126 -0.081598 -0.210100 0.211500 0.019788 0.177718 -0.020118 -0.183455 -0.035531 -0.149611 0.031694 0.167320 -0.062217 -0.015673 -0.190035 -0.255938 0.103018 -0.116660 -0.241818 0.170345 0.035081 -0.308208 -0.035880 -0.164861 0.133109 -0.008179 0.040085 0.158639 0.158208 -0.098244 0.141345 -0.226305 -0.190433 -0.080933 -0.134696 -0.016785 0.023558 0.243320 -0.050704 -0.235286 0.038824 0.110204 0.053314 -0.129701 0.147237 -0.116959 0.021193 0.125975 -0.200384 0.100812 0.120129 -0.143532 -0.123905 0.062387 -0.118826 -0.121613 0.120473 0.116738 -0.300580 0.339211 0.029288 0.000053 -0.115894 -0.122072 -0.323959 0.024554 0.128643 0.133562 -0.071611 0.132436 0.168781 -0.126606 0.080834 0.292132 0.118569 0.029178 0.041400 0.273989 -0.020465 0.017659 0.111593
将 -0.189928 -0.198918 0.193650 -0.092381 -0.062074 0.094399 -0.069388 0.011452 0.016991 -0.754107 0.235663 -0.328378 0.055255 0.108873 -0.311168 0.002009 -0.226477 0.159113 -0.017323 0.072764 0.379660 0.050381 -0.049336 0.237823 -0.360826 0.010217 -0.103513 -0.136485 0.041968 -0.067590 0.162038 0.490866 0.288783 0.260111 0.001201 0.360978 -0.444021 -0.018629 -0.044910 0.007162 -0.034043 0.118657 -0.135294 0.038647 -0.167944 0.059439 0.158059 -0.100057 0.057455 -0.052416 0.067053 0.013686 0.339605 -0.397125 0.009569 0.095190 0.331306 0.085188 -0.180628 -0.166254 0.380753 0.048201 -0.024183 0.021094 -0.365159 0.076381 0.234423 0.208821 0.124295 0.127694 -0.063554 0.381254 -0.070790 -0.053210 0.051221 -0.304401 0.088379 -0.083392 -0.040160 -0.197582 -0.323374 -0.201225 0.038212 -0.141884 0.015076 -0.078228 0.197678 0.048954 0.057573 -0.050768 -0.536794 0.082444 0.430252 0.232156 -0.311230 -0.083050 0.074794 -0.034232 -0.039690 0.203434
而 -0.394760 -0.188994 0.141109 0.220495 -0.222232 0.074219 -0.042586 -0.048194 -0.207244 -0.040708 0.086149 0.041567 0.081331 -0.448303 -0.124382 0.134442 -0.007739 -0.114793 0.038102 0.338678 -0.005802 0.110331 0.307362 -0.028442 -0.117404 -0.046607 -0.105793 -0.189738 -0.060320 0.231173 0.120053 -0.134506 0.143522 -0.123169 -0.114100 0.267847 -0.364906 -0.125672 0.014940 -0.019629 -0.151965 -0.110485 -0.286420 0.164778 0.078342 -0.067323 -0.016046 0.166617 -0.106689 0.041156 -0.370365 -0.052675 0.062053 -0.534645 0.241873 -0.197990 0.138501 0.148959 -0.070807 0.003059 0.276399 0.031147 -0.117658 0.256512 -0.407750 -0.247086 0.085778 -0.078637 0.000543 0.031864 0.108135 0.125266 -0.104437 -0.096895 -0.018278 -0.077583 -0.132063 0.021055 -0.047072 0.303356 -0.056026 0.094931 0.050463 -0.105580 0.255663 0.016718 0.134516 -0.228069 -0.104917 -0.068871 -0.071605 0.098274 0.146983 0.045240 -0.121030 -0.050130 0.066328 0.341093 -0.080374 0.158715
多 -0.232163 0.118904 -0.532656 0.264735 -0.100098 0.322481 -0.082174 0.266452 -0.186885 -0.192854 0.025284 0.365540 0.181986 -0.017639 -0.293411 0.451274 -0.076780 -0.168314 -0.314289 0.249496 -0.088515 0.187320 0.020169 0.024083 -0.276083 0.394817 -0.312209 -0.153850 -0.010589 0.202002 0.273401 0.137744 -0.178815 -0.096236 -0.192340 -0.171495 -0.189335 0.002504 0.082629 0.293862 0.348649 -0.089031 0.173796 -0.026149 0.354494 -0.357802 -0.000275 0.125667 0.141383 0.026109 0.122752 0.001001 0.121180 -0.496364 0.017928 0.144581 -0.323744 -0.027440 -0.224491 0.038740 0.330584 -0.003309 -0.187412 0.144324 0.024667 -0.017536 0.087472 -0.071495 -0.115948 -0.062675 0.106190 -0.204002 -0.040970 -0.054391 0.098609 0.201074 0.019779 -0.123933 0.329433 0.319403 0.067896 -0.140037 -0.349931 0.034649 0.219146 0.095520 0.614182 0.038670 -0.096786 0.225382 -0.532344 0.272712 -0.259530 -0.147379 0.212023 -0.091730 0.207990 -0.029958 0.208213 0.092177
2 0.072023 -0.208939 -0.304281 -0.051899 -0.072669 0.004376 0.039362 0.412269 -0.085937 -0.245674 0.446481 -0.070208 0.148575 -0.168588 0.134852 0.209543 0.089243 -0.028680 -0.058547 0.209911 -0.253152 0.211961 -0.417927 0.061334 -0.155225 0.095095 -0.123432 0.142562 0.107643 -0.076707 -0.081243 0.305178 -0.138894 0.094294 -0.185084 0.037329 -0.235839 -0.220732 0.060170 -0.141440 -0.168531 0.342792 -0.245327 0.098092 -0.188813 -0.257658 0.052848 0.083922 0.145542 0.223977 0.058370 -0.004684 0.218834 -0.245613 -0.003515 -0.076714 0.157881 -0.027085 -0.231498 0.041602 0.170207 0.128684 -0.317455 0.153019 -0.426595 0.189296 0.027270 0.131654 0.143942 -0.356081 0.109730 -0.164521 0.073566 -0.113463 -0.014197 -0.238588 0.664213 0.180250 0.074708 -0.262077 -0.357239 -0.354138 0.119950 0.163881 -0.144619 -0.189764 0.280185 0.119699 0.260646 -0.024274 -0.431047 -0.004870 0.052115 -0.004943 -0.035183 0.047260 -0.110073 0.048631 0.239664 -0.198460
后 0.391602 -0.280294 -0.134951 0.243077 -0.206134 0.117838 0.037027 0.452361 -0.117248 -0.282342 0.237232 -0.242780 -0.165206 0.044192 0.157135 0.181536 -0.223212 0.030416 -0.123873 0.320278 0.063972 -0.002341 0.098734 -0.261977 -0.355876 -0.075305 0.185001 -0.107867 0.117836 -0.027794 0.107033 0.101813 0.126359 0.249838 -0.301137 0.229897 -0.458478 -0.048727 -0.246637 0.511834 -0.133144 0.008816 -0.125663 -0.024881 -0.174810 0.030467 0.132002 -0.107437 0.046940 0.213884 0.200326 -0.082065 0.189429 -0.284059 -0.280926 -0.187043 0.298982 0.063043 -0.168585 0.023264 0.347562 0.109894 -0.092925 0.141529 -0.094902 0.148599 -0.007878 0.244054 -0.004487 -0.006105 0.235302 0.178726 -0.068617 -0.106769 -0.019782 -0.488235 0.484899 0.217408 -0.176652 0.149192 -0.267807 0.259263 -0.367123 0.074555 -0.098734 -0.149890 0.408260 -0.019012 0.035168 -0.183491 -0.229738 0.170840 0.560236 0.232300 -0.111462 -0.378294 0.296847 0.074362 -0.174970 0.109618
没有 0.015962 -0.310453 0.068034 0.347505 -0.257554 0.202842 0.042200 -0.408160 -0.298607 -0.177831 0.079536 0.047078 -0.099246 -0.049881 -0.031667 0.163654 0.074404 -0.193063 -0.094285 0.325233 -0.119556 0.074411 0.310206 -0.054182 -0.067309 -0.021880 -0.305625 0.217629 -0.084052 0.098505 0.091997 -0.116867 0.014753 0.368555 -0.290439 -0.204024 -0.336579 -0.038575 0.160061 0.317096 -0.279942 -0.228403 -0.320744 0.231425 -0.064429 -0.110506 -0.013345 0.170275 0.118396 0.168280 -0.220188 -0.201707 -0.024634 -0.069058 0.300428 0.066270 -0.050317 -0.045846 -0.287965 0.124771 0.178858 -0.111677 -0.278078 0.296221 -0.039509 0.092710 -0.126588 -0.306886 -0.232657 -0.113191 0.021689 -0.041337 0.004390 -0.139177 -0.016035 -0.023559 -0.128524 -0.169290 0.184317 0.015040 0.143710 -0.023673 -0.231282 0.269615 -0.008320 -0.013903 0.070208 -0.228073 0.030231 -0.058563 -0.151560 0.132453 0.249746 -0.207277 0.092553 -0.135560 -0.020310 0.367785 -0.067256 0.082050
好 0.017822 0.203457 -0.438144 0.163584 -0.010545 -0.341895 -0.008154 0.207930 -0.254251 -0.240176 0.169481 -0.004505 -0.177603 0.180217 -0.051356 0.261306 -0.016043 0.082663 0.152620 0.098150 0.251216 0.157870 0.126933 -0.056877 0.062752 0.008673 -0.156238 0.052715 0.075838 0.012470 0.251489 0.165098 -0.052804 0.037902 -0.115585 -0.158759 -0.208553 0.169552 -0.065288 0.081074 -0.072057 -0.017688 0.037043 0.080814 -0.288276 -0.240823 -0.263898 0.450876 0.131739 0.153741 0.305925 -0.298600 -0.226759 0.194656 -0.036332 0.312252 -0.006138 0.137795 -0.209000 0.335591 0.186895 -0.031176 -0.345498 0.219263 -0.203774 -0.051781 0.426719 -0.106868 -0.213284 -0.278617 -0.095866 -0.210594 0.278498 -0.139029 0.152906 0.027420 0.173717 -0.136491 0.400161 0.156471 -0.067881 0.155594 -0.230734 0.228276 0.111054 -0.157457 0.331865 -0.015279 0.053421 0.206651 -0.562849 0.015057 0.320128 -0.236016 -0.116150 0.166413 0.101827 0.021649 0.068907 0.342485
孩子 0.248445 -0.199516 0.115466 -0.305769 -0.187585 0.239569 -0.606328 -0.190165 0.279926 -0.328932 0.035841 -0.010056 0.287175 -0.256604 -0.045809 0.660785 0.168806 -0.259046 0.367760 -0.102053 -0.366947 0.376742 0.172453 -0.175614 0.333011 0.145126 -0.433739 -0.176031 -0.912544 0.011241 0.604154 0.013821 -0.234869 -0.383841 0.046486 -0.185942 -0.233676 0.364264 -0.168176 0.085808 -0.290704 -0.202759 -0.291624 0.128351 0.173832 -0.347763 -0.129333 -0.233991 0.079129 0.042694 -0.056260 -0.137036 -0.250250 -0.082165 0.440177 0.067150 -0.040370 0.128815 -0.270062 0.461228 0.517140 0.038536 -0.146904 -0.041938 -0.173852 0.162038 0.283651 -0.029156 -0.222347 -0.254642 0.034559 -0.308579 0.047924 -0.275754 0.025146 -0.126905 0.202603 -0.148917 0.135676 0.042884 -0.120622 0.246548 -0.219044 -0.126134 0.081713 0.153459 0.919671 0.036470 0.348840 0.215526 -0.336990 -0.310975 0.584560 0.158760 0.413334 -0.067748 -0.066865 0.222649 -0.489214 0.180998
能 -0.245276 -0.052876 -0.167285 0.229004 -0.131299 0.324051 -0.477719 -0.047006 -0.186678 -0.278138 0.287712 0.122905 0.158013 0.000811 -0.199386 0.384602 -0.033803 -0.235905 0.001685 -0.012271 -0.059749 0.001633 -0.029456 0.080260 -0.010422 0.081221 0.164715 0.019527 -0.132341 -0.089464 0.101787 0.039157 0.133260 0.054343 -0.145234 0.238080 -0.732765 0.157471 0.149154 0.221410 -0.241474 -0.084906 0.202188 -0.208177 0.003246 0.020280 -0.350201 0.250090 0.226384 0.312598 -0.094281 -0.152100 0.132387 0.136151 0.241812 -0.250488 0.078855 0.210054 -0.362283 0.090896 -0.101305 -0.294058 -0.160836 0.166789 -0.403249 0.149734 -0.032327 -0.244290 -0.222243 0.112797 -0.051163 -0.272704 0.200021 -0.174203 -0.155277 -0.143036 0.077010 -0.215725 0.199372 0.328418 -0.029149 0.259480 -0.016126 0.253623 0.126646 0.016965 0.314938 0.029619 -0.209533 0.312417 -0.391030 0.027737 0.199444 0.018268 -0.042234 0.154201 0.117110 0.153225 0.042690 0.299807
》 -0.596359 -0.367113 -0.065457 0.141424 0.020903 0.248650 0.031912 0.346567 0.321134 -0.489199 0.137088 0.550634 -0.021351 0.064277 -0.362367 0.068419 0.186426 -0.236469 -0.411642 0.182154 0.362492 0.192083 0.113498 0.108898 0.440101 -0.212572 -0.601683 0.761851 0.014792 -0.197677 -0.003247 0.014654 0.190075 -0.032301 -0.048190 0.051430 0.012166 -0.145088 0.475086 0.245662 -0.270560 -0.084393 -0.129793 0.707671 -0.282663 -0.118146 0.000046 -0.222297 -0.433374 -0.067715 0.300603 0.393754 -0.016699 -0.135892 0.109922 0.068408 0.397076 -0.104234 -0.383268 -0.468214 0.502388 0.277577 -0.094755 0.083401 -0.250765 0.047914 0.327378 0.111390 -0.028758 0.140376 0.044081 -0.270725 0.354032 -0.207858 -0.025698 0.184128 -0.057936 0.500667 -0.443826 -0.042471 -0.360725 -0.069174 -0.426117 -0.031170 -0.352320 0.051371 -0.286553 -0.322258 -0.238906 0.077667 -0.373721 -0.300090 0.429210 -0.037066 -0.107610 -0.204966 0.385904 0.112159 -0.029450 0.049788
《 -0.647373 -0.400570 -0.088979 0.153733 -0.012462 0.224298 0.050389 0.373216 0.249304 -0.504308 0.206692 0.497399 0.008498 0.097826 -0.395848 0.106171 0.202885 -0.243772 -0.443726 0.156050 0.361507 0.121522 0.101237 0.081962 0.404324 -0.221345 -0.619168 0.741730 -0.045229 -0.204882 -0.053819 -0.040276 0.200349 -0.107341 -0.120410 0.029989 0.032472 -0.167613 0.443927 0.200485 -0.221816 -0.084614 -0.080433 0.617066 -0.273640 -0.119185 0.006276 -0.222313 -0.444032 -0.053517 0.289713 0.443490 -0.017567 -0.173977 0.183543 0.063701 0.395047 -0.030278 -0.405540 -0.435134 0.481579 0.159227 -0.132164 0.037921 -0.186933 0.013160 0.323102 0.057694 0.010577 0.166454 0.097193 -0.263070 0.401461 -0.230293 -0.044098 0.211000 0.013053 0.498276 -0.426197 -0.020876 -0.335894 -0.026569 -0.347318 0.047724 -0.351367 0.064715 -0.346819 -0.396557 -0.297639 0.091591 -0.374261 -0.363879 0.399844 -0.025584 -0.045932 -0.189079 0.364325 0.063441 -0.010714 0.099143
3 0.028762 -0.250148 -0.318911 0.047824 -0.022561 0.024614 -0.020316 0.370876 -0.091720 -0.230902 0.451713 -0.105411 0.117503 -0.237065 0.202379 0.221186 0.033852 -0.048034 -0.106126 0.219258 -0.150682 0.195130 -0.424739 0.052526 -0.121044 0.055219 -0.074828 0.149878 0.100439 -0.133513 -0.084624 0.278774 -0.238075 0.086279 -0.265066 0.065369 -0.195383 -0.213326 0.044508 -0.115112 -0.194924 0.289471 -0.180025 0.131244 -0.127293 -0.260264 0.100410 0.096939 0.090991 0.224718 0.048930 0.036406 0.223418 -0.254433 -0.099548 -0.116777 0.175980 -0.045669 -0.275644 0.020684 0.175736 0.099757 -0.317421 0.080134 -0.340265 0.163359 0.027834 0.178509 0.076703 -0.280631 0.151514 -0.173998 0.091417 -0.068956 -0.040688 -0.145999 0.669379 0.194932 0.110120 -0.322902 -0.335333 -0.349689 -0.002996 0.148476 -0.172824 -0.173254 0.294535 0.146583 0.290666 0.045104 -0.437028 0.010073 0.112441 0.036888 -0.023593 0.100033 -0.143601 0.053667 0.211013 -0.138181
还 -0.223027 -0.252086 -0.108963 0.612678 -0.140713 -0.004124 -0.198538 -0.293020 -0.138915 -0.385794 0.197714 0.129128 -0.249246 -0.015796 -0.104173 0.316448 -0.025001 -0.112115 0.003508 0.087365 0.308873 0.275101 0.096662 0.234270 -0.057212 0.201692 0.092998 -0.164333 -0.015251 -0.099843 0.219143 0.001750 -0.070237 0.140330 -0.221981 0.050956 -0.431511 -0.046286 0.070859 0.223941 -0.134388 -0.428708 -0.051038 0.026675 0.026581 -0.050179 -0.010135 0.023092 0.181587 0.209692 0.021804 0.124901 0.054551 -0.060467 0.115162 -0.206069 0.027606 0.209716 -0.333771 -0.088014 0.127811 -0.094201 -0.271354 0.181492 -0.024525 0.082428 -0.039858 -0.251353 0.046217 0.096894 0.043593 -0.234522 0.051234 -0.141809 0.069053 -0.092847 -0.038311 -0.036718 0.418359 0.230766 0.022632 0.100489 -0.136454 0.153824 -0.004556 0.059904 0.145187 0.046066 -0.116070 -0.017948 -0.548077 -0.021174 0.185719 -0.198611 0.203027 0.114575 0.000515 0.141792 -0.178613 0.146720
就是 -0.026156 -0.038346 -0.000530 0.236599 -0.307501 -0.025534 -0.139232 -0.039993 -0.279328 -0.333147 0.133866 0.135936 -0.113699 -0.369863 -0.351768 0.001158 -0.080907 -0.039522 0.220591 0.167433 -0.170708 -0.217686 0.423054 -0.119615 0.245961 0.019301 -0.255822 0.054665 -0.181040 0.162534 0.027782 -0.136798 0.176838 -0.087720 -0.173841 0.211564 -0.121502 -0.047519 0.129991 0.049567 -0.291990 0.240053 -0.238848 0.322081 -0.114796 -0.041000 -0.018451 0.279560 0.015728 0.132641 -0.120845 -0.075427 -0.206775 -0.081248 0.290985 0.007153 0.100185 -0.112092 -0.059678 0.185479 0.047426 0.336917 -0.345547 0.259862 -0.303370 -0.099706 -0.006594 -0.142968 -0.021577 -0.045094 -0.272893 -0.131924 0.025327 -0.240318 -0.208105 0.033438 -0.022327 -0.235244 0.319539 0.060893 -0.147784 -0.211311 -0.050834 0.007076 0.182090 0.013610 -0.001407 -0.266881 0.044317 0.208512 -0.106742 0.020233 0.116801 -0.088862 0.032522 0.130401 0.234960 0.141998 -0.118541 0.128769
很 -0.010782 -0.016833 -0.065461 0.391939 -0.162123 -0.207550 -0.091187 -0.274037 -0.489769 -0.276903 0.217163 0.195846 -0.246882 -0.153412 -0.048469 0.526310 -0.026607 -0.100026 0.101978 0.009226 -0.094789 0.268252 0.282056 0.012968 -0.047967 0.045372 -0.161742 0.066631 0.191320 0.255537 0.379217 -0.080339 0.039456 -0.120010 -0.096736 -0.054533 -0.200732 -0.020225 0.133813 0.225873 -0.118886 -0.133117 -0.037857 0.526557 -0.012834 0.118368 -0.033395 0.350201 -0.051781 -0.078732 -0.089843 -0.206992 -0.234421 -0.033397 0.064961 0.260295 0.127369 0.303033 0.059579 0.280852 -0.090456 -0.164257 -0.454518 0.010633 -0.268193 0.033031 0.174011 0.145949 -0.140671 -0.162274 -0.039507 -0.228163 0.125852 -0.167287 -0.020912 0.043575 0.201590 -0.218644 0.452847 0.063288 0.090100 0.059827 0.010722 -0.111331 0.225926 -0.001316 0.306240 -0.023567 0.024673 0.118513 -0.180827 0.252535 0.201666 -0.442676 0.005097 -0.075985 0.368180 0.252666 -0.023497 0.514554
更 -0.380569 0.008195 -0.438654 0.118600 -0.016499 0.392177 0.111919 0.087773 -0.237813 -0.171406 0.192415 0.162053 0.085552 -0.070393 -0.344067 0.346596 -0.067815 0.030034 -0.277927 0.149358 0.013550 0.048869 -0.138519 -0.058478 -0.160864 0.491856 -0.344728 -0.109142 0.137229 0.217982 0.156689 0.165713 -0.139203 -0.179153 -0.081564 -0.099976 -0.287115 0.121189 0.000142 0.193776 0.365703 -0.064472 0.349320 0.096534 0.402636 -0.274459 -0.030550 -0.018094 0.092003 -0.233216 0.032860 0.265829 0.030763 -0.463071 0.124291 0.148905 -0.089187 -0.028888 -0.236501 0.212426 0.280063 -0.204444 -0.307765 0.043160 -0.181927 -0.167939 0.099098 -0.117961 -0.199378 0.022534 0.081741 -0.071483 0.105817 -0.079549 -0.080954 -0.053852 -0.098567 -0.290368 0.193370 0.252295 -0.036126 -0.060027 -0.262814 -0.281002 0.578747 -0.021910 0.546989 -0.019457 -0.162093 0.217804 -0.584791 0.335859 -0.026929 -0.234046 0.313769 -0.196778 0.164091 0.265793 0.257735 0.260419
; -0.343374 0.060726 -0.323103 0.659105 0.523731 -0.233392 0.112892 0.503173 -0.329035 -0.138596 -0.247930 0.134582 -0.019843 -0.305698 0.354244 0.101407 0.102113 -0.005012 0.126315 0.464169 0.061215 0.109145 -0.332486 -0.156984 -0.543755 0.109103 -0.103645 -0.021610 -0.407692 -0.079348 -0.038512 0.472834 0.071594 -0.440401 0.048337 0.099736 -0.425798 0.095354 0.100594 -0.416266 0.034281 0.499438 -0.022359 0.058651 -0.068101 -0.239862 -0.179125 0.495507 0.080073 0.217164 0.299938 0.185173 0.070962 -0.065267 0.369799 -0.169852 0.502335 -0.232909 -0.210612 -0.397768 0.384433 0.034521 -0.555203 0.533395 -0.465385 -0.069530 -0.078915 -0.130843 0.150476 -0.216603 0.082424 0.304878 0.118795 -0.272642 0.504052 0.151113 0.091860 0.064900 0.238730 0.061180 -0.082884 0.186980 -0.227881 0.192470 0.016745 -0.007782 0.256867 0.094629 0.195369 0.031747 -0.477542 -0.131789 0.154287 -0.021179 -0.039365 -0.075247 -0.213415 0.319016 0.427434 -0.083554
中国 -0.250216 -0.388639 0.034983 -0.090307 -0.194443 0.046131 -0.004448 0.022055 -0.003008 -0.388016 -0.107056 0.091408 -0.059120 -0.096503 -0.521045 0.003182 -0.241839 0.442717 -0.139774 0.266605 0.018068 -0.167783 -0.158439 0.289066 0.041128 -0.288153 -0.169973 0.008831 -0.174403 0.024941 0.046295 0.251374 0.100287 -0.074214 -0.327796 -0.089292 0.225276 0.004954 0.026248 0.157840 0.383164 0.002005 -0.198852 0.419009 0.185648 -0.118330 -0.280677 -0.169071 0.099385 0.127273 -0.137893 -0.065501 0.100152 -0.096399 -0.225486 0.113947 0.078065 -0.212046 -0.314047 0.014931 0.397506 -0.135766 -0.053561 0.024544 -0.193599 0.231373 0.185377 -0.361468 -0.161167 -0.059422 0.551598 0.051328 -0.170437 0.175826 -0.078060 0.315428 0.032176 0.283762 0.174630 -0.074662 -0.213811 -0.439798 0.292989 -0.235293 -0.340990 0.371956 -0.185928 -0.635914 -0.179307 0.260346 -0.628595 0.001211 0.390789 -0.030394 -0.161810 -0.362829 0.601400 0.443009 -0.018723 0.216135
她 0.263628 -0.143541 -0.048821 0.154788 -0.444539 0.268551 -0.574136 -0.303668 -0.374935 -0.620491 0.064721 0.268949 -0.178626 0.103500 0.040983 0.276201 0.191488 -0.393467 -0.037354 0.130312 0.102081 0.106598 0.231352 -0.527811 -0.011840 0.144057 0.040506 0.164369 -0.183084 0.289427 0.528134 -0.034792 -0.158337 -0.237078 0.024491 -0.230498 -0.127517 0.189597 0.119448 0.361634 -0.188108 -0.092744 -0.418741 0.462762 -0.145534 -0.129347 -0.151213 0.327289 0.184331 0.282222 -0.188066 -0.074679 -0.023156 0.058978 0.019989 -0.002549 0.376838 0.020099 -0.257350 0.366420 0.283236 -0.006813 -0.245603 0.177893 -0.049572 0.361672 0.254365 0.037729 -0.006302 -0.097838 -0.003770 -0.190115 0.012795 -0.012249 0.046553 -0.091997 -0.371017 -0.027113 0.120307 0.404339 -0.312652 0.285521 -0.253146 -0.086663 0.033643 -0.067767 0.475253 -0.104382 0.007120 -0.139203 -0.078511 -0.030713 0.443444 0.146805 0.303564 -0.159099 -0.181461 0.554059 -0.325470 0.122307
/ 0.289688 -0.014427 -0.760732 0.344107 -0.057493 0.273340 0.118312 0.860902 0.032034 -0.334580 0.226359 0.703907 -0.093678 -0.041586 0.098679 0.166151 0.197515 -0.208767 -0.455200 0.017083 -0.120423 0.173772 -0.738444 0.103985 -0.272718 0.673873 -0.503673 0.596018 0.198197 0.245820 -0.214513 0.494302 0.045122 -0.373061 -0.142102 -0.089491 -0.410442 -0.508573 -0.083227 -0.463974 -0.141407 0.447820 -0.197943 -0.100551 -0.235724 -0.380972 -0.179575 0.238699 -0.258696 0.247681 -0.334391 0.067942 0.155868 -0.355735 0.117039 0.419903 0.342264 0.119468 0.013497 -0.488007 0.089170 -0.012890 -0.388349 0.151472 -0.529335 -0.004483 -0.106298 0.020449 -0.146226 -0.185543 0.229788 0.391452 -0.330557 0.032442 0.100576 0.086000 0.172573 0.354908 0.133652 -0.339247 -0.329391 -0.331373 0.578153 0.074237 -0.050098 -0.073408 0.024316 -0.182200 0.268256 -0.575301 -0.982812 0.078205 0.216780 -0.119598 0.027482 -0.534466 0.020785 0.182188 0.289498 0.036774
关注 -0.176985 0.304694 -0.358316 0.380216 0.034826 0.612148 -0.039013 0.588171 -0.496572 -0.115615 0.223368 -0.319719 -0.324230 0.232779 -0.312413 0.325378 -0.172182 0.378175 -0.027547 -0.089731 0.177487 -0.543023 -0.093242 0.461805 -0.111258 0.618801 -0.343748 0.082467 0.087479 -0.298516 -0.339921 0.420404 0.061620 -0.577547 -0.309925 0.225722 0.132919 0.341646 0.130115 0.511563 -0.274302 -0.634981 0.254699 0.604124 -0.061834 0.256853 0.237316 0.567677 0.130844 -0.469317 0.236177 0.485576 0.084201 -0.250715 0.143455 0.133850 -0.334212 -0.499368 -0.511260 0.140028 0.693635 -0.325682 0.002206 0.148061 -0.061567 0.092764 0.012392 -0.013240 -0.353359 -0.541853 -0.050216 0.053668 0.380678 -0.221273 -0.000466 -0.032022 0.387543 -0.149092 -0.234356 0.218499 -0.226067 -0.198251 0.100053 0.022233 0.232260 0.490389 0.122888 -0.393363 0.630202 -0.223896 -0.451659 0.525148 0.332503 -0.299911 0.125063 -0.134620 0.070859 0.148473 -0.044016 0.017157
做 0.162146 0.024085 -0.134430 0.292546 -0.258546 0.060497 0.141822 0.111302 -0.271636 -0.358887 0.284447 0.017392 0.029873 -0.382480 0.126252 0.116077 -0.203667 -0.387757 -0.116657 0.038574 -0.168305 -0.122657 0.072194 0.006080 -0.015085 0.037765 -0.061324 0.264101 -0.170158 0.055769 -0.203415 0.122519 0.055926 -0.347807 -0.344261 -0.190432 -0.156648 0.316382 -0.031046 0.164410 0.077929 -0.104563 -0.152802 0.186922 0.125985 -0.171087 0.417777 0.115875 0.402297 0.336471 -0.153509 -0.319291 -0.123822 0.126479 0.446349 0.188107 -0.164383 0.208756 -0.180469 0.263447 -0.039600 0.164054 -0.199720 0.172297 -0.043176 0.050442 0.339001 0.132190 -0.032518 -0.227071 -0.377248 -0.028672 -0.024928 -0.289354 0.142045 0.101565 -0.317782 -0.369029 0.157691 0.020810 -0.107445 -0.112696 -0.173931 0.165536 -0.227695 -0.015321 0.222414 -0.154269 -0.236046 0.120945 -0.429279 0.189945 0.276807 0.187180 -0.170473 0.081798 0.170440 0.130937 -0.321388 0.507867
如果 0.094112 0.006942 0.087714 0.273507 -0.028930 -0.108235 -0.093933 -0.185270 -0.168544 -0.284829 0.148631 -0.129356 0.005540 -0.184481 -0.118111 0.303050 0.117429 -0.178283 0.057616 0.143495 -0.126833 0.008297 0.170497 -0.020814 -0.111036 0.160578 -0.365085 0.154735 0.078765 0.140256 0.074589 0.147094 0.088605 0.021360 -0.195714 0.116998 -0.412957 0.026442 0.032486 0.106013 -0.070287 -0.084323 -0.208735 0.027672 0.061322 -0.117054 -0.034892 0.041975 0.103166 -0.057105 0.000558 -0.069388 0.007141 -0.346937 0.181800 -0.255508 -0.011334 -0.015005 -0.111071 0.039819 0.056792 -0.189063 -0.356692 0.180124 -0.053358 0.119637 0.152060 -0.217432 0.104972 -0.141200 -0.098556 -0.069296 0.369217 -0.232226 -0.003251 0.065707 0.093651 -0.150598 0.270905 -0.013675 -0.003205 0.098498 -0.017422 0.175152 -0.110301 0.063410 0.384018 -0.111541 0.274005 -0.025624 -0.255521 0.436447 0.239220 -0.012148 0.132364 0.085052 0.128273 0.244376 -0.023686 0.193603
给 0.273500 0.067743 -0.127005 0.139996 -0.024167 0.348845 -0.330602 0.001877 -0.174923 -0.861445 0.004993 -0.132558 -0.140854 -0.082184 -0.336110 0.218405 -0.017088 0.121002 0.123300 0.006659 0.301854 -0.254552 -0.112459 -0.068119 0.293559 0.176508 -0.006721 0.153815 -0.161081 0.185738 0.241894 0.417538 0.191643 -0.078893 -0.142900 -0.015317 -0.332419 -0.116379 -0.023398 -0.000195 -0.046835 -0.050677 -0.060014 0.266350 0.548380 -0.074373 -0.110510 0.180595 -0.006655 0.268621 0.030176 -0.089836 -0.102322 -0.248973 0.342117 0.051186 -0.152325 0.139879 0.041213 0.292637 0.138967 0.072575 -0.256499 0.143721 0.015242 -0.170417 0.114580 -0.020278 0.233844 -0.038360 -0.378726 -0.319847 -0.040748 -0.165854 0.140444 -0.117192 -0.069407 -0.109482 0.028243 0.382246 -0.095867 0.245553 -0.206033 0.279709 -0.027408 -0.222112 0.328636 -0.321736 0.122648 -0.062347 -0.444955 -0.004831 0.275575 0.025320 0.268239 -0.186319 0.093671 0.102278 -0.146089 -0.096712
被 0.100551 -0.309805 0.129691 0.264669 0.071203 0.177123 -0.313616 -0.017393 -0.253088 -0.434976 0.101003 -0.119139 -0.002869 -0.165155 -0.204315 0.020572 -0.060230 0.217554 0.208645 0.289917 -0.064041 0.423333 0.291351 -0.272941 -0.154738 0.087793 -0.017746 -0.198726 0.081216 0.058991 0.299373 0.214981 0.021876 -0.206954 -0.344081 0.273633 -0.506559 -0.172938 0.057620 0.192719 -0.220045 -0.000145 0.223998 0.271489 -0.137763 0.487122 -0.058464 0.062159 0.077668 0.173471 -0.185245 -0.171828 -0.236445 -0.617178 -0.228952 0.144243 0.491487 0.291637 -0.074654 -0.116774 0.151693 -0.076810 0.018403 0.100164 -0.295370 0.088955 -0.183777 0.240940 0.091816 0.129896 0.439736 0.239726 -0.014889 -0.119112 -0.194189 0.185106 -0.252825 -0.045328 0.122953 -0.003348 -0.144636 -0.030651 -0.120137 0.313595 -0.013018 0.030109 0.064883 -0.366840 -0.045132 -0.389132 -0.045211 -0.139462 0.440814 0.254227 0.108702 -0.072456 0.216656 0.053648 -0.316142 0.026468
但 -0.286462 -0.240125 0.211168 0.182610 -0.415938 0.098913 -0.178799 -0.346351 -0.393037 -0.079073 0.058635 0.153098 -0.006777 -0.275660 -0.062498 0.274653 -0.080870 -0.063848 0.125811 0.232748 -0.159053 0.085396 0.321226 -0.212254 -0.154429 -0.060449 -0.127992 -0.047505 -0.047750 0.015534 0.170746 -0.044833 0.116239 -0.009174 -0.178527 -0.065824 -0.382281 -0.120727 0.338506 0.122810 -0.310336 -0.365465 -0.309309 0.270324 -0.078621 -0.011793 0.044705 0.220673 -0.019534 0.054529 -0.323819 -0.073138 0.030465 -0.190744 0.199089 0.056381 0.041993 0.153848 -0.125042 -0.104970 0.190592 -0.333067 -0.234121 0.199381 -0.210760 -0.071906 0.145958 -0.082007 -0.117790 -0.047051 -0.001241 0.084734 -0.113940 0.136477 0.026508 -0.088030 0.094072 0.013811 0.152629 0.272445 0.167503 0.007358 0.025303 0.072453 -0.085825 0.014998 0.080248 -0.137277 -0.152940 -0.147420 -0.160687 0.266980 0.277163 -0.162249 -0.069436 -0.020188 0.191049 -0.002182 0.057664 0.304821
把 0.247351 0.087773 -0.093180 -0.127341 -0.284585 0.045489 -0.151390 -0.185158 -0.042819 -0.775671 0.001584 -0.197558 -0.297982 0.035894 -0.385326 0.079103 0.043063 -0.149379 -0.009090 0.013737 0.077409 0.009926 0.158582 0.000205 0.126873 -0.025163 -0.182179 -0.047750 -0.124916 0.221082 0.450087 0.339142 0.304200 0.048644 -0.022967 0.321499 -0.300616 0.311137 -0.054020 0.154339 -0.143677 0.084278 -0.028926 0.215251 -0.108689 -0.033320 -0.146176 0.289979 0.108149 0.101370 0.116317 -0.325693 -0.412037 -0.327497 0.055190 0.146860 0.160036 0.177859 -0.124032 -0.072559 0.116150 0.161267 -0.189097 0.085413 -0.389845 0.098107 -0.011707 0.181201 0.076540 0.040499 -0.219462 0.248671 -0.053769 -0.332175 -0.096991 -0.119674 -0.195376 -0.362481 0.199046 -0.011187 -0.383824 -0.209579 -0.108768 0.280052 0.048221 -0.284339 0.262546 -0.141599 -0.116664 0.024643 -0.470646 0.085067 0.256514 0.167280 -0.177554 0.205320 -0.042889 0.204641 -0.378570 0.070810
】 -0.195127 0.068427 -0.590197 0.117512 0.105094 0.327112 -0.076361 0.519526 -0.261982 -0.498670 0.275575 0.254438 0.160253 0.080470 -0.141366 0.027674 -0.391735 0.083864 -0.335214 0.113919 -0.427945 -0.032492 -0.500744 -0.277758 0.257524 0.188792 -0.646185 -0.015905 0.244120 -0.375405 -0.340289 0.519030 0.168142 0.035667 -0.386253 0.157100 -0.281587 -0.162525 -0.128851 0.161701 -0.193866 0.065176 -0.140106 0.136654 -0.001066 -0.213443 0.251827 -0.005954 0.068565 -0.122657 0.171527 0.239326 0.016728 -0.168137 0.356434 0.292508 0.180084 -0.337283 -0.107274 0.074413 0.223478 0.031899 -0.052398 0.298347 -0.539822 -0.119204 -0.203547 0.215971 -0.023827 0.113817 -0.020557 -0.023801 -0.326358 -0.327853 0.274002 0.073436 0.293545 0.360355 -0.260983 -0.020380 -0.284635 0.002776 -0.044498 0.118657 -0.270075 -0.200876 0.031967 -0.271684 0.111126 -0.174068 -0.553068 -0.408758 -0.134266 -0.178118 0.082437 -0.533721 0.104480 0.392525 0.169072 0.222144
【 -0.181505 0.094306 -0.619152 0.118851 0.088166 0.375721 -0.072060 0.462739 -0.269052 -0.448583 0.276141 0.226408 0.109588 0.072984 -0.092674 0.028645 -0.396779 0.098236 -0.357048 0.120989 -0.468334 -0.048733 -0.514845 -0.312646 0.268131 0.208996 -0.635107 -0.021301 0.256841 -0.367267 -0.333543 0.476217 0.132829 0.010815 -0.417896 0.148612 -0.355968 -0.155862 -0.097947 0.168497 -0.188519 0.066573 -0.168094 0.105662 0.024847 -0.250799 0.187842 -0.022614 0.057717 -0.088225 0.281080 0.321488 0.008875 -0.188366 0.362741 0.326485 0.138749 -0.311663 -0.108995 0.100459 0.249242 0.016213 -0.125720 0.233420 -0.578272 -0.123959 -0.206278 0.172245 0.013472 0.053832 0.014889 -0.033059 -0.336327 -0.349632 0.197768 0.074062 0.263364 0.367835 -0.227962 -0.035709 -0.344646 0.064061 -0.046862 0.082162 -0.233123 -0.174770 0.011051 -0.277911 0.145657 -0.132209 -0.544381 -0.379239 -0.192267 -0.195097 0.062071 -0.527617 0.095940 0.417351 0.175046 0.242698
时 -0.141997 -0.244897 0.013081 0.325562 -0.045854 -0.081982 -0.053134 0.354737 -0.063483 -0.139440 0.171396 -0.229099 0.393727 -0.019610 0.183505 0.348001 0.165643 -0.254913 -0.140575 0.248129 0.132300 0.040843 0.131778 -0.158445 -0.243070 -0.043140 -0.305734 -0.015455 -0.119977 0.249009 0.006341 0.104704 0.399418 0.135806 -0.243786 0.034721 -0.127514 -0.013634 -0.160288 0.353912 -0.411870 -0.050637 -0.198811 0.046963 0.104257 0.012947 -0.081302 -0.063400 -0.255711 0.184941 -0.082592 -0.233385 0.035131 -0.305255 -0.119471 -0.392734 0.086139 0.365887 -0.043529 -0.069461 0.112794 0.124346 -0.346367 0.155978 -0.189031 0.017489 0.014021 0.142429 0.106781 0.027004 0.099332 0.060120 0.091334 0.124592 0.019367 -0.137027 0.068219 0.328530 0.326748 0.005579 -0.176980 0.314604 -0.143464 -0.094701 0.066057 -0.155336 0.305566 -0.116295 -0.011216 -0.210045 -0.271308 0.251279 0.375150 0.360226 0.075646 -0.153864 0.039881 0.134733 -0.354847 0.162598
日 -0.407522 -0.604050 0.004127 0.058937 -0.521271 0.297521 -0.179223 0.853685 0.101656 -0.259485 0.298082 -0.166842 0.250070 -0.048941 0.034536 0.216861 -0.201785 -0.027532 -0.529084 0.263633 0.569098 0.026414 -0.244225 -0.000971 -0.001369 -0.169918 -0.360511 0.394528 0.219450 0.187422 -0.100991 0.516290 0.016157 -0.036178 -0.442730 0.042093 0.071120 -0.171528 0.011667 -0.041288 -0.045234 0.109818 0.055475 0.142255 -0.181440 0.365144 0.477506 0.226673 -0.079722 0.112969 -0.563468 0.418776 0.209058 -0.342784 0.302379 0.052539 0.035249 -0.281339 -0.489429 0.147657 0.264785 0.491154 -0.166838 0.305449 -0.367609 0.170984 0.253261 0.055286 0.428906 0.269762 0.785347 0.037390 0.005854 -0.142448 0.090075 -0.188446 0.569933 0.357689 0.359756 -0.439419 -0.261904 0.110562 0.240111 -0.110861 -0.356283 0.074861 -0.468376 -0.334774 0.350422 -0.340567 -0.675025 -0.383065 0.347915 -0.143178 0.139554 -0.301857 0.212228 -0.055896 0.143269 -0.167925
去 0.368534 -0.098254 -0.231696 0.199414 -0.264867 -0.124058 -0.041736 -0.010716 0.136826 -0.493532 0.531050 0.052582 -0.090236 0.006823 -0.159691 0.093738 0.216232 -0.151898 0.077333 -0.169969 -0.028520 0.125357 -0.006838 -0.130643 -0.122260 0.194763 -0.360851 -0.065364 -0.174183 -0.041002 0.121309 0.217014 0.297091 -0.239708 -0.163520 0.060929 -0.331730 0.173336 0.058014 0.502244 0.063735 0.255176 -0.124991 0.117372 0.108905 -0.270202 0.260121 0.523380 0.318751 -0.116205 -0.267048 -0.431875 -0.065783 -0.033087 0.238768 -0.125279 0.071437 0.097631 -0.016102 0.060641 0.418141 0.103062 -0.494535 0.086860 0.032324 0.123180 0.156064 -0.317845 0.189990 0.024255 -0.034536 0.075303 -0.164345 -0.318855 0.120833 -0.319257 -0.272211 0.175131 0.048683 0.373375 -0.425892 0.249678 -0.151977 0.296773 -0.036565 -0.029755 0.007046 -0.179753 0.036217 0.335202 -0.418008 -0.040842 0.079519 -0.111369 -0.107103 0.234809 -0.236908 0.052326 -0.485477 0.034535
或 0.078826 -0.121064 -0.027194 0.174230 -0.103181 0.259986 0.207392 0.289743 -0.273534 -0.020614 0.138556 -0.120374 0.103336 0.043595 0.153509 0.238596 -0.025650 -0.096806 0.141140 0.262458 -0.207848 0.252416 -0.211190 -0.010392 -0.533131 0.309594 -0.439997 0.071105 0.029861 -0.085499 0.182226 0.071912 0.438445 0.126916 -0.097825 0.190989 -0.384881 0.016937 -0.074060 0.135540 -0.216852 0.099339 -0.240026 0.004067 0.032090 -0.250835 -0.086193 -0.119480 0.059504 0.171851 0.175597 0.038682 0.386693 -0.967386 -0.071470 -0.099655 0.084479 -0.103772 0.230802 0.063667 0.215800 -0.011050 -0.076692 0.326845 -0.000197 0.004209 0.083571 -0.014662 0.146260 -0.166601 -0.042444 -0.017378 0.229634 -0.093560 -0.121243 -0.012252 0.141986 0.171621 0.036466 -0.195872 0.051040 0.160567 0.033952 -0.048003 -0.188106 -0.170494 0.432306 -0.066934 0.116555 -0.212633 -0.360947 0.121333 0.183422 0.243173 -0.339891 -0.103803 0.044858 0.490703 -0.041367 -0.245937
… -0.111178 -0.257048 -0.274012 0.411708 -0.242075 0.045413 -0.577761 -0.076021 -0.115436 -0.498469 0.199666 0.284513 -0.547546 0.325308 0.037979 0.028757 0.223858 0.008330 -0.027999 0.038064 -0.211364 -0.064812 0.136482 -0.155548 0.352128 -0.069522 -0.165844 0.008272 -0.350088 0.053015 0.075534 0.186119 -0.225789 -0.389511 -0.244417 -0.034536 -0.122350 -0.056917 -0.060875 0.329220 -0.310214 0.000702 -0.320472 -0.121037 -0.010388 -0.338433 0.089121 0.260531 0.097545 0.090313 0.004122 0.054229 -0.085384 -0.157801 -0.128618 0.180713 0.130025 -0.058275 -0.270526 -0.151325 0.286601 0.197082 -0.145890 0.168434 0.058423 -0.228567 -0.236012 -0.261061 0.130303 -0.092563 0.082219 0.216805 0.215824 -0.400792 -0.023909 0.405710 0.103876 -0.211839 0.472545 -0.024745 -0.151393 -0.059650 -0.456180 -0.150558 0.042135 -0.145238 0.072856 0.021874 0.254008 -0.262135 -0.304406 -0.283293 0.142294 0.188984 -0.013842 0.060827 -0.025356 0.341160 -0.204898 0.264839
最 -0.432569 0.079567 0.019238 0.390237 0.085295 0.298650 0.069830 0.139022 -0.294509 -0.479919 0.017194 0.054168 0.067275 -0.373070 -0.427762 0.287196 -0.426514 0.043543 0.355935 -0.354598 -0.474751 0.052736 0.350771 -0.038608 0.277778 -0.034478 -0.359911 -0.062371 0.049504 0.407186 -0.011784 0.054228 0.052342 0.082154 -0.115769 0.003673 0.132078 0.082654 -0.194542 0.221536 -0.202115 0.267951 0.073681 0.735611 0.230326 0.164612 0.214086 0.421364 0.297052 0.106340 0.152714 -0.199549 -0.218900 -0.119374 0.053795 -0.106025 0.287442 -0.088238 -0.003600 0.153372 0.365522 0.046986 -0.386608 0.040472 -0.414671 -0.061856 0.179725 0.234165 -0.147961 -0.176701 -0.033177 -0.127834 0.168949 -0.021344 0.078025 -0.092887 0.050591 0.124156 0.118142 0.058973 0.095983 -0.242235 -0.168880 -0.203932 0.492930 0.331236 -0.026568 -0.186906 0.102023 0.159541 -0.153816 0.154692 -0.013270 -0.146544 0.210298 -0.196907 0.254128 0.318630 0.336460 0.254444
: -0.021946 0.241647 -0.262736 0.237936 -0.163038 0.369350 0.163120 0.728280 -0.609893 -0.275817 0.107001 0.397201 0.065441 0.059697 0.098934 0.345881 -0.057979 -0.091276 -0.773145 -0.005077 0.203591 -0.128403 -0.572961 0.371037 -0.004942 0.665959 -0.278772 0.647244 -0.003520 -0.076009 -0.026615 0.604387 0.099992 -0.112463 -0.281312 -0.068110 0.063556 0.052660 -0.333789 -0.304289 -0.415363 0.250184 -0.194007 0.137019 -0.175886 -0.124902 0.143245 0.576202 -0.107607 -0.154510 0.008542 0.173461 0.128438 0.236576 0.071667 0.243729 0.374927 0.124686 -0.269944 -0.172642 0.343407 0.258066 -0.375489 0.354512 -0.535961 0.023902 -0.341035 -0.119122 -0.142265 -0.265208 0.442555 0.160572 -0.070152 -0.168068 0.316173 -0.135055 0.020219 0.288671 0.479226 -0.264735 -0.358291 -0.217348 0.325872 0.312600 -0.128286 -0.155387 0.149146 -0.132644 0.499253 -0.197337 -0.464038 -0.197891 0.204336 -0.312675 -0.063534 -0.643303 0.183811 0.563571 0.091681 -0.136076
着 0.195239 -0.535201 -0.112318 0.532759 -0.125711 0.002470 -0.476644 -0.234564 -0.004887 -0.487289 -0.074676 0.374270 -0.130242 0.379894 -0.222206 0.127816 0.161233 -0.157650 -0.142765 0.038145 -0.089405 -0.081663 0.073480 -0.185210 -0.070676 -0.163627 0.028537 -0.348563 -0.118800 -0.329885 0.665371 0.250359 0.187085 -0.169751 -0.180116 0.186164 -0.121462 0.042220 -0.092604 -0.016925 -0.213278 -0.129260 -0.239992 0.473184 0.193766 -0.098036 -0.095917 0.090615 -0.066414 -0.067405 -0.320670 -0.307459 -0.200637 -0.196825 0.225012 -0.021201 -0.161719 -0.118352 -0.097187 0.076091 0.290218 0.107526 -0.200506 0.073574 -0.032236 0.312480 -0.177665 0.037788 -0.045926 -0.161149 -0.114384 -0.051033 0.040164 -0.076449 0.432349 0.114614 0.040950 0.103545 0.333365 0.258737 -0.057798 0.198376 0.000184 0.088409 0.436777 -0.052429 0.070659 -0.142003 -0.225831 0.076359 -0.448253 -0.076059 0.416938 0.036441 -0.402362 -0.083270 -0.290704 0.628661 -0.361974 -0.142890
来 -0.210051 -0.023345 0.159709 0.494480 -0.257887 0.134669 -0.342813 0.086313 0.068178 -0.433104 0.170087 0.004456 -0.188836 0.144537 -0.256676 0.047668 -0.008814 0.218857 0.129103 -0.099149 0.138319 0.084203 0.010509 -0.082005 0.196185 0.086211 -0.142523 -0.091455 0.079294 -0.154128 0.291679 -0.049169 0.148208 -0.185154 -0.072635 0.122779 -0.252929 0.336477 -0.054543 0.025290 0.044641 0.151673 -0.370806 0.166012 0.083073 0.028358 0.102180 0.329985 0.105591 0.229867 0.101837 -0.354837 0.138205 0.062555 0.183653 -0.041331 -0.199619 -0.015101 -0.078899 0.125722 0.146621 0.345147 -0.195355 0.391730 0.023844 -0.093847 -0.079857 -0.292734 0.213149 0.206671 -0.054704 0.092964 0.105398 -0.340456 0.078840 -0.039712 0.025233 0.079789 0.079064 0.186394 -0.279979 0.195929 -0.290940 0.101559 -0.066023 -0.024345 0.116195 -0.109449 -0.043164 0.212595 -0.509900 0.093950 0.070214 -0.069015 0.189878 -0.020762 0.119129 0.104179 -0.175684 0.035488
并 -0.360971 -0.380661 0.057004 0.166158 -0.208994 0.343711 0.048068 0.035219 -0.177479 -0.193733 -0.014283 -0.064851 0.018891 0.112416 -0.136421 0.228211 -0.274640 -0.037903 0.093061 0.034647 0.114498 0.205281 -0.020551 -0.024937 -0.372005 0.077393 -0.080943 0.038935 0.017391 0.016076 0.238801 0.098558 0.053626 0.154493 0.140298 -0.059493 -0.381927 -0.233988 0.224860 0.103713 -0.006989 -0.208843 0.057373 0.226764 -0.259959 0.143560 0.246174 -0.068359 0.011861 -0.032887 0.105170 -0.051927 0.406139 -0.442860 0.000537 -0.164266 0.097113 -0.018222 -0.058693 0.313002 0.205653 0.059283 -0.096279 0.268996 -0.146813 -0.072319 -0.032059 -0.214352 -0.295914 -0.097896 0.117246 0.047205 -0.060162 -0.068729 -0.081619 -0.180169 0.077287 0.018886 0.046056 0.089641 -0.275383 0.251141 -0.072552 0.191234 0.053746 -0.144305 0.366114 -0.332657 -0.215285 -0.166466 -0.324688 0.166215 0.284385 0.060207 -0.149350 -0.231169 0.005056 0.011229 -0.397803 0.217336
用 0.090536 -0.341847 0.146848 0.096646 -0.254631 0.058655 -0.121909 0.232584 -0.142280 -0.583468 0.200431 -0.076252 -0.087530 -0.323195 -0.348488 -0.089400 0.093470 -0.125939 -0.107641 -0.141649 -0.005369 0.142835 -0.069037 0.091165 0.056212 0.055936 -0.148806 -0.081600 0.039570 -0.325148 0.494651 0.185390 0.425633 0.070820 0.120491 -0.217986 -0.116701 0.371241 0.239133 0.184486 -0.208667 0.035623 -0.578402 0.106859 0.152902 0.074573 -0.040302 0.347005 0.129385 0.341050 0.102054 -0.427518 -0.234457 -0.265643 -0.174624 0.070748 0.129705 -0.062743 0.030228 0.007339 -0.001979 0.064677 -0.481532 0.067825 -0.236085 -0.088762 0.094554 0.313434 -0.201100 -0.054685 -0.339243 0.435641 0.361875 -0.622687 -0.133740 -0.158884 -0.049707 0.088751 0.174018 -0.055852 -0.275654 -0.103793 0.089810 0.239578 0.072803 -0.174032 0.272299 0.119132 -0.014307 0.111429 -0.545362 0.061599 0.010252 0.222147 -0.009786 -0.002539 0.132147 0.136993 0.051994 0.125136
% -0.164533 -0.233308 -0.087619 0.275322 -0.393688 0.550187 -0.057362 0.522930 -0.007511 -0.270920 -0.097642 -0.246184 -0.319012 -0.773156 0.338611 0.160230 -0.480970 0.227915 -0.210075 0.250294 0.019701 0.232228 -0.024766 -0.286382 -0.005059 0.175353 0.144696 -0.049981 -0.644477 0.174193 -0.502882 0.677158 0.104197 -0.069095 -0.251760 0.105587 -0.495720 0.082955 -0.099716 0.053871 -0.291395 -0.204266 -0.469025 -0.172057 -0.025614 -0.213737 -0.245784 0.119432 0.322710 0.238833 -0.636019 0.228527 0.689083 -0.178963 -0.154006 -0.397166 0.313907 0.097716 -0.401738 -0.501121 -0.151682 0.321212 0.181098 -0.374492 -0.014378 -0.139681 0.096637 -0.162468 -0.042828 -0.520339 0.450834 0.118500 -0.036129 0.136046 0.129147 0.218935 0.588057 0.753453 0.003435 -0.318842 -0.294783 -0.036976 0.392441 0.191309 0.078095 -0.208090 -0.056239 -0.144357 0.458739 -0.034859 -0.472316 0.419463 0.085224 -0.375948 -0.122242 0.223658 0.348107 -0.341787 0.394416 0.427430
可 -0.235141 -0.230292 -0.285502 0.315166 -0.404731 0.279813 -0.197047 0.437737 -0.312562 -0.004341 0.245745 -0.148334 0.031287 0.059661 -0.105194 0.306346 -0.370667 -0.041753 -0.001578 0.133635 -0.004387 0.306089 -0.302817 0.221442 -0.359752 0.452607 -0.133531 -0.131182 0.073334 -0.080658 0.185732 0.108618 0.164993 0.188326 -0.059494 0.140896 -0.671457 0.136637 0.026546 0.295923 -0.093392 -0.124212 -0.162833 -0.303351 0.013222 0.018650 0.104727 -0.053109 0.098780 0.076403 0.352027 0.142922 0.416698 -0.335400 -0.149864 -0.026583 -0.021053 0.099212 -0.046540 -0.110149 0.029317 -0.091264 0.244704 0.195203 -0.231277 0.256250 -0.024382 -0.121960 -0.247589 -0.001471 -0.132166 -0.309608 0.251685 -0.051316 -0.312744 -0.027099 0.472747 0.070991 0.165635 0.189713 0.030504 0.341527 -0.147232 0.096391 -0.093917 -0.099846 0.316509 0.078167 -0.068478 0.090583 -0.326485 0.083106 0.277679 0.088810 -0.071176 -0.268175 0.010259 0.338091 -0.063570 -0.133878
这个 0.165993 -0.064092 -0.117948 0.281075 -0.186653 0.061280 -0.256137 -0.251989 -0.368466 -0.305935 0.156630 0.381265 -0.266908 -0.120759 -0.363317 -0.093914 -0.138270 -0.028914 0.094005 0.011276 -0.041130 -0.201208 0.089214 -0.062465 0.030908 -0.069704 -0.388162 0.145981 -0.155803 0.147375 0.226264 0.053503 -0.028577 0.004299 -0.165943 0.337660 -0.038247 -0.008056 0.177306 0.139203 -0.193944 0.124052 -0.302201 0.341878 -0.221907 0.050823 -0.115154 0.075945 0.065857 -0.109261 -0.102177 -0.334486 -0.100407 0.026864 0.230499 0.028960 -0.027742 0.182173 -0.203712 0.304312 0.031169 -0.064865 -0.241884 0.131129 -0.277540 -0.090630 0.027083 -0.197481 -0.073511 0.069896 -0.005426 0.039212 -0.090633 0.026356 0.049252 0.113037 0.067341 -0.114819 0.203408 0.022381 -0.048132 -0.311964 -0.250951 -0.109164 0.012927 -0.078862 0.263015 -0.309270 -0.040533 0.063330 -0.263063 0.310808 0.226996 -0.092594 0.359045 -0.039086 0.247182 0.108038 -0.184126 0.095159
从 0.080918 -0.049997 0.131710 0.243530 -0.328603 0.381453 -0.215152 -0.001541 -0.104476 -0.205792 0.030900 0.045917 -0.052173 -0.059321 -0.151495 0.085275 0.603638 0.168623 -0.183250 0.219261 0.223219 0.222392 0.048638 -0.180929 0.030649 -0.116652 -0.075460 0.066524 0.140076 -0.048674 0.060085 -0.024975 0.265815 -0.147458 -0.066078 0.313459 -0.143734 -0.035169 -0.163043 0.170856 -0.378685 -0.001965 0.025212 0.117248 -0.115901 -0.020224 0.181616 0.311990 0.104381 0.182640 -0.207444 -0.372275 -0.001108 0.035417 0.040067 -0.257680 0.162423 -0.082571 -0.415716 -0.065915 0.265690 0.237224 0.118006 -0.064152 -0.192005 0.057361 0.049557 -0.149658 0.048913 0.160465 -0.030834 0.203232 -0.223920 -0.041907 0.001299 -0.168403 0.089088 0.158429 -0.082169 -0.100594 -0.215321 -0.529030 0.064690 -0.379095 0.167145 -0.119873 0.064244 -0.341468 0.216271 0.173737 -0.513118 -0.033503 0.284056 0.120286 -0.044964 -0.178800 0.132027 0.017184 -0.239488 0.027668
) 0.083913 -0.388383 -0.383252 -0.050678 -0.354523 0.085446 0.234738 0.340551 -0.323616 -0.205041 0.049703 0.306979 -0.169930 -0.138669 0.043296 0.175655 -0.067679 0.433225 0.018961 0.290610 0.040373 0.207829 -0.333650 -0.041051 -0.212848 0.269147 -0.148955 0.274899 0.124989 -0.007339 -0.142732 0.491926 0.181366 -0.085320 -0.090516 -0.045086 -0.131149 -0.051994 0.016875 -0.020080 -0.345638 0.150632 -0.348784 -0.036303 -0.438499 -0.004510 -0.001493 0.076617 -0.006508 0.091439 0.382720 0.102545 0.272327 -0.169896 -0.041443 0.021918 0.284900 0.053983 -0.070391 -0.487548 -0.107715 0.535200 -0.323698 0.301368 -0.527426 -0.106401 0.061643 0.190699 0.029687 -0.428242 0.104434 0.087838 0.263654 -0.173205 0.363352 0.252422 0.215548 0.186965 0.114628 -0.166902 -0.576561 -0.197756 0.293166 0.149906 -0.469025 -0.111671 0.270416 0.061850 0.320825 -0.014340 -0.399687 0.002226 0.157845 -0.002640 -0.543225 -0.212963 0.056327 0.147764 0.145222 -0.366637
5 -0.014492 -0.272441 -0.325386 0.157655 -0.004338 -0.127855 -0.062244 0.272375 -0.121717 -0.270276 0.365348 -0.158023 0.188162 -0.260339 0.212439 0.165605 -0.073939 -0.068843 -0.145722 0.078349 -0.070730 0.179569 -0.357249 0.103758 -0.085579 -0.106359 0.009052 0.216964 0.043541 0.008460 -0.119703 0.377043 -0.300150 0.051801 -0.288388 0.180463 -0.261838 -0.244616 0.031838 -0.180242 -0.309774 0.258832 -0.167742 0.120808 -0.056365 -0.199561 0.099485 0.142491 0.051966 0.136300 -0.159264 0.058984 0.315747 -0.240296 -0.121598 -0.206481 0.194709 0.047128 -0.341817 0.052597 0.068986 0.143226 -0.420282 0.015036 -0.378771 0.235457 0.011274 0.207440 0.055960 -0.197076 0.251442 -0.142916 0.009276 -0.049214 -0.036706 -0.126066 0.641182 0.260063 0.184945 -0.300976 -0.343582 -0.482942 0.024073 0.268347 -0.111656 -0.123660 0.210641 0.030944 0.329813 -0.034909 -0.433469 0.010116 0.115864 0.020638 0.037465 0.253141 -0.157468 -0.030003 0.175651 -0.043777
12 -0.345267 -0.340877 -0.032544 0.202444 -0.392031 0.025252 -0.199784 0.647914 0.110618 -0.424792 0.351001 -0.099982 0.039475 -0.030946 -0.014454 0.292079 -0.303912 0.034012 -0.434895 0.192979 0.307924 0.196860 -0.340295 0.072584 0.104911 0.048713 -0.353789 0.198663 0.111602 0.080417 -0.090215 0.594996 0.015003 0.088656 -0.252633 0.069762 0.145781 -0.045962 -0.058609 -0.205690 -0.048591 0.216999 0.000546 0.142315 -0.295344 0.147132 0.391655 0.335905 -0.021777 -0.183775 -0.302222 0.198950 0.340395 -0.129704 0.324740 0.190177 0.094338 -0.046162 -0.619422 0.086178 0.230151 0.268539 -0.093674 0.284680 -0.412154 0.115737 -0.046738 0.174445 0.307189 0.054672 0.724247 -0.037934 -0.001177 0.011447 0.317070 -0.210462 0.603947 0.186816 0.383204 -0.456043 -0.323865 -0.109090 0.153990 0.052903 -0.195891 -0.097509 -0.188949 -0.097970 0.178237 -0.174699 -0.634982 -0.269314 0.304563 -0.118264 0.204789 -0.079411 0.100468 -0.093326 0.218345 -0.226282
什么 0.006607 0.064119 -0.085109 0.588818 -0.301741 0.235205 -0.059795 0.034097 -0.142525 -0.354296 0.371714 0.406739 -0.232898 -0.140320 -0.273988 0.151213 -0.075013 0.007677 -0.047940 0.298912 -0.345155 -0.207390 0.327546 0.102042 0.232827 0.052449 -0.234640 0.100277 -0.417479 0.074291 -0.020092 0.172128 0.099329 0.077085 -0.357561 0.042040 -0.166042 0.217929 0.068358 0.309924 0.025292 -0.079865 -0.124465 0.117180 0.062875 -0.118112 -0.109600 0.121433 0.055124 0.238399 0.099426 -0.272007 0.029051 0.194953 0.307570 -0.057426 0.045687 0.114183 -0.210094 0.400382 -0.178663 -0.151399 -0.482035 0.591747 0.101152 0.198761 0.221547 -0.349461 -0.008522 -0.137227 -0.136824 -0.024718 -0.142725 -0.253381 0.202476 0.202648 0.014327 -0.191521 0.329029 -0.221276 -0.100634 0.101673 -0.345048 0.018031 -0.002444 0.138570 0.016788 -0.154197 0.129308 0.159487 -0.238697 0.042407 0.181769 -0.114927 0.343045 0.025669 0.013262 0.318342 -0.002555 -0.028582
大 0.013318 -0.305651 -0.240606 -0.121560 -0.150885 -0.199183 0.117762 0.241191 -0.343412 -0.130152 0.329683 0.256353 0.075628 0.246537 -0.422424 -0.162868 -0.299783 0.073064 -0.061430 0.275980 0.222646 0.089482 0.177670 -0.147909 -0.193654 -0.063685 -0.183815 -0.126852 0.068190 0.309310 0.047863 0.472512 -0.065398 0.226604 -0.366871 0.141901 -0.219002 0.269895 0.204503 0.266049 -0.135973 0.307947 -0.176722 0.487759 0.093691 -0.370661 -0.053933 -0.053088 -0.009548 -0.020301 0.104686 -0.024085 -0.009790 -0.053285 0.229454 0.494788 -0.155293 0.133660 -0.408504 -0.113546 0.245791 0.231062 0.058893 0.272029 -0.127597 -0.124366 -0.169528 0.108076 0.118597 -0.163096 0.010943 -0.333180 -0.323773 -0.004605 0.362057 0.320473 0.292852 -0.110015 0.084133 0.331726 0.014610 -0.422007 -0.020472 0.030457 0.139362 0.218246 0.209644 -0.100377 0.027792 0.155446 -0.379633 0.032849 -0.016196 -0.138769 -0.028347 0.038370 0.045878 -0.198134 -0.113606 0.275981
又 -0.254199 -0.114140 -0.071059 0.410933 -0.431222 -0.146910 -0.316255 -0.088095 -0.379442 -0.237885 0.400174 0.099234 -0.229631 0.024961 -0.231227 0.216432 -0.033614 -0.071923 -0.052138 0.297210 0.101291 0.116345 0.139096 0.160745 0.169196 -0.153599 0.066348 -0.271049 -0.110736 0.144401 0.331506 -0.207423 0.106180 -0.328575 -0.346117 0.186543 -0.475092 -0.072917 0.103310 0.278139 -0.014733 -0.001197 -0.105798 0.344185 0.206727 -0.024748 0.045139 0.090062 -0.013788 0.258729 -0.157271 -0.167691 -0.108266 -0.059049 0.234183 0.182789 0.271495 0.180537 -0.191449 0.085296 0.186479 0.069175 -0.180094 0.311126 -0.223644 0.167708 -0.030779 0.079683 0.148536 0.241746 0.042013 -0.085528 0.035433 -0.342538 0.033890 -0.240975 0.121614 -0.048060 -0.123916 0.369872 0.032255 0.293362 -0.219781 -0.069331 0.108865 -0.184853 0.128930 -0.110981 -0.143602 -0.021930 -0.029776 0.080709 0.199328 -0.238626 0.056200 -0.026864 0.037229 0.085189 -0.039682 0.021197
( 0.078141 -0.382906 -0.415478 0.046746 -0.442274 0.109324 0.250104 0.370633 -0.332452 -0.197938 0.106717 0.360695 -0.243242 -0.122359 0.095966 0.238226 -0.045981 0.454193 0.038880 0.316583 -0.011081 0.215866 -0.291331 -0.020906 -0.174459 0.275982 -0.210975 0.311180 0.107386 0.033779 -0.143305 0.500000 0.198818 -0.077670 -0.058333 -0.043512 -0.115638 -0.032399 0.084705 -0.060930 -0.338249 0.208668 -0.375349 -0.049565 -0.447709 -0.006339 0.000758 0.090325 -0.008667 0.107235 0.367909 0.154393 0.244336 -0.212332 -0.039242 0.047936 0.252635 -0.018045 -0.079466 -0.539445 -0.218651 0.535593 -0.285842 0.266092 -0.564690 -0.122972 0.023123 0.207195 0.116729 -0.396840 0.027537 -0.012382 0.243872 -0.193988 0.386490 0.307542 0.246632 0.189752 0.136146 -0.185182 -0.567548 -0.153296 0.307802 0.110084 -0.488320 -0.113932 0.227114 0.004845 0.261222 -0.038176 -0.375181 -0.004332 0.143368 -0.040402 -0.522105 -0.268469 0.064228 0.163696 0.201051 -0.364753
公司 -0.434873 -0.086008 -0.120109 -0.258800 0.016393 0.140147 0.142899 0.025740 0.015877 -0.246824 0.128750 -0.097763 -0.605089 -0.503451 0.071742 0.403268 -0.311547 -0.001317 -0.095202 -0.018783 0.072578 0.237404 -0.339837 -0.027936 -0.339850 -0.094889 0.445470 0.229660 0.111989 0.210854 0.112901 0.151756 0.258490 -0.044865 -0.559918 0.097736 -0.452600 -0.115742 0.303443 0.064844 -0.079623 0.205097 -0.129712 0.166668 0.049239 0.068622 0.050075 -0.308438 0.314527 0.167308 -0.155155 0.210450 0.192643 -0.053898 0.294505 0.236491 -0.183444 -0.030501 -0.497682 0.473796 -0.043039 0.185259 0.119138 0.175820 0.031870 -0.212575 0.253045 -0.436752 0.322946 -0.511922 -0.149532 0.152382 -0.071603 0.287371 0.283346 0.098875 -0.366829 0.337070 0.141164 -0.076459 -0.701387 -0.134362 0.057616 0.212969 0.072864 0.358959 -0.096493 -0.375049 0.187635 0.026872 -0.189559 0.232300 0.601928 -0.100768 -0.420871 -0.183876 0.446196 0.063317 -0.239043 -0.020676
时间 -0.424558 -0.245109 0.004268 -0.169264 -0.287798 0.045749 -0.097421 0.332881 0.250326 -0.139989 0.089271 -0.190051 0.094796 -0.014182 0.008743 0.398349 -0.242898 -0.138532 -0.799609 0.252876 0.103231 0.248746 0.160745 -0.253997 0.058050 0.071220 -0.254313 0.353058 -0.214495 -0.247037 0.163069 0.185915 -0.046837 0.475804 -0.306864 0.038369 0.040684 0.096128 -0.223491 -0.077853 -0.102907 0.334812 -0.041803 0.097286 -0.041028 0.167769 0.621736 0.312080 0.493127 0.037638 0.076715 -0.230189 0.167096 -0.170265 0.381295 0.311532 -0.096806 -0.034540 -0.417056 -0.102867 0.260500 0.186491 -0.392456 0.110244 -0.090455 0.045816 0.101800 -0.126595 0.025808 -0.189288 0.390705 0.279575 -0.190731 0.309031 0.059264 -0.226066 0.288418 0.039565 0.240169 0.345699 -0.084531 0.343508 -0.208643 0.472161 0.039027 0.221516 0.176070 0.433700 0.661557 0.114914 -0.385266 0.224135 0.062283 0.114492 0.352390 -0.348060 0.281823 0.157712 -0.126399 -0.183839
ى -0.647866 -0.733774 0.169157 0.832431 -0.662511 0.715117 -0.721280 0.789108 -0.745915 -1.625548 0.456969 -1.486075 -0.400799 -0.403819 -0.631394 0.875930 1.125851 0.393876 -1.163664 0.298167 -0.916756 0.078275 -1.650886 -0.288322 -0.301752 0.750354 0.133054 0.934997 -0.283023 1.279997 0.583700 -0.212606 -0.407124 -0.633159 -0.065380 -0.367290 -1.075501 -0.239024 -0.260752 0.822864 -0.847980 0.016914 -1.070763 1.119227 -1.781868 -1.670877 -0.384670 1.427967 0.968345 -0.541517 -0.689367 1.330542 0.266735 -0.045737 0.611347 -0.225926 1.060668 1.158963 -0.453235 -1.072604 0.295881 0.281229 -1.149473 0.228128 -1.315542 0.342724 -0.889426 -0.076706 -0.168803 -0.852596 0.414516 0.093300 0.345779 -0.434754 0.176038 0.689941 1.063096 0.082533 1.037737 -0.504156 -0.955113 0.941818 0.183743 0.199800 0.473019 0.358773 0.089721 -0.609384 0.988180 -0.505456 -1.635877 0.281709 1.140978 -0.265421 -1.238613 -1.085179 1.313949 0.425374 0.783889 0.097535
因为 -0.066217 -0.230582 0.123160 0.223814 -0.138552 0.001962 0.010493 -0.137428 -0.301137 -0.383555 0.247302 0.131503 -0.087567 -0.328500 -0.219947 0.343077 0.067831 -0.175368 0.030305 0.371416 -0.192105 -0.072422 0.412426 -0.167270 -0.008176 -0.080967 -0.321110 -0.054716 -0.015419 0.370714 0.213235 -0.024584 0.078228 -0.049268 -0.157072 -0.080868 -0.223064 -0.087322 0.090197 0.140996 -0.089698 -0.011933 -0.149191 0.198972 -0.043862 0.021996 -0.035204 0.263870 0.148765 -0.087637 -0.384340 -0.220093 -0.158843 -0.280653 0.182971 -0.026122 -0.041819 0.172574 -0.009038 0.112018 0.190737 -0.094868 -0.322730 0.180696 -0.191201 -0.203856 -0.018050 -0.051472 -0.071528 -0.109477 0.084648 -0.117184 -0.104539 -0.172490 -0.009952 -0.058238 -0.217331 -0.084118 0.330433 0.284956 -0.026834 0.054156 0.075247 0.161937 0.120409 0.067898 0.232752 -0.232408 0.190178 -0.205414 -0.132177 0.088320 0.134517 -0.086016 0.071676 0.001070 0.174338 0.171470 -0.179530 0.135427
4 -0.051136 -0.234644 -0.289002 -0.021056 0.004918 -0.072614 0.011277 0.270384 -0.087001 -0.263342 0.443471 -0.124184 0.216718 -0.302620 0.281037 0.207859 0.124384 -0.064384 -0.004377 0.238892 -0.166958 0.218273 -0.408187 0.085417 -0.080112 -0.002411 -0.119003 0.100467 0.070465 -0.067508 -0.065215 0.289445 -0.248852 0.103389 -0.350060 0.083992 -0.205227 -0.263508 -0.005298 -0.165913 -0.215899 0.337321 -0.148330 0.155690 -0.117137 -0.223771 0.073313 0.068687 0.085419 0.289293 -0.064018 0.049094 0.186187 -0.259890 -0.080881 -0.013367 0.242472 0.019079 -0.238920 0.040232 0.176101 0.128101 -0.391364 0.120268 -0.453928 0.155187 0.110607 0.170478 0.120591 -0.251778 0.294483 -0.212833 0.032499 -0.093548 -0.005783 -0.088271 0.577209 0.156670 0.139417 -0.263325 -0.349854 -0.339652 0.073771 0.212825 -0.132388 -0.152376 0.179590 0.104884 0.241561 0.016081 -0.452901 -0.118795 0.076591 -0.013886 0.007408 0.170924 -0.154820 -0.022158 0.201563 -0.174126
他们 -0.105173 -0.370621 0.149462 0.032749 -0.108617 0.393419 -0.222689 -0.323057 -0.064608 -0.402976 0.060598 0.138270 -0.006206 -0.131214 -0.103875 0.462787 -0.070459 0.140445 0.030776 -0.191784 -0.197657 -0.059284 0.178920 -0.257124 -0.051292 0.160175 -0.067506 0.053693 -0.291044 0.082472 0.504371 0.108102 0.104246 -0.275180 -0.120633 0.139389 -0.171737 0.174362 0.059937 0.383280 0.058800 -0.046928 -0.263067 0.140848 0.114619 -0.124312 -0.090382 0.024697 -0.079360 0.155456 -0.410505 -0.259634 -0.042727 -0.110931 0.205201 -0.112576 -0.092877 0.281332 -0.040339 0.346694 0.214698 0.032480 -0.225215 -0.011771 -0.200123 -0.056670 0.007870 -0.226074 0.034463 -0.047316 0.083044 0.073298 -0.047563 -0.048944 0.041901 -0.062190 -0.259526 -0.129530 0.273207 0.160784 -0.040521 0.000543 -0.253098 0.149650 0.132891 0.009824 0.286284 -0.159041 -0.083076 0.001992 -0.145359 0.091670 0.392343 -0.138154 0.047232 -0.010660 0.223767 0.278811 -0.187020 0.029581
